<?xml version="1.0"?>
<opencv_storage>
<my_svm type_id="opencv-ml-svm">
  <svm_type>C_SVC</svm_type>
  <kernel><type>RBF</type>
    <gamma>5.0625000000000009e-01</gamma></kernel>
  <C>3.1250000000000000e+02</C>
  <term_criteria><epsilon>1.1920928955078125e-07</epsilon>
    <iterations>10000</iterations></term_criteria>
  <var_all>4</var_all>
  <var_count>4</var_count>
  <class_count>3</class_count>
  <class_labels type_id="opencv-matrix">
    <rows>1</rows>
    <cols>3</cols>
    <dt>i</dt>
    <data>
      1 2 3</data></class_labels>
  <sv_total>369</sv_total>
  <support_vectors>
    <_>
      8.59026134e-01 2.75916278e-01 3.52998704e-01 3.57678607e-02</_>
    <_>
      5.29407144e-01 6.23399138e-01 1.36679664e-01 3.27929519e-02</_>
    <_>
      5.82707763e-01 4.87863928e-01 9.96052250e-02 2.87184790e-02</_>
    <_>
      4.99843657e-01 5.19506633e-01 3.84098068e-02 3.67876813e-02</_>
    <_>
      4.86279428e-01 5.19814909e-01 4.76167202e-02 3.60298045e-02</_>
    <_>
      4.90394235e-01 4.83404368e-01 4.23919521e-02 3.08572762e-02</_>
    <_>
      4.93335545e-01 5.29816210e-01 4.38738093e-02 4.09732051e-02</_>
    <_>
      4.87722725e-01 5.27455866e-01 5.13510108e-02 3.40821967e-02</_>
    <_>
      4.05495584e-01 7.39793777e-01 2.37115547e-01 3.57656144e-02</_>
    <_>
      3.95216823e-01 8.60250413e-01 2.87367731e-01 2.51387544e-02</_>
    <_>
      5.73101044e-01 5.57913661e-01 1.06608123e-01 3.25897299e-02</_>
    <_>
      5.76688230e-01 5.76252639e-01 1.20071985e-01 3.33807990e-02</_>
    <_>
      5.65404296e-01 5.60255647e-01 1.02249511e-01 3.66499647e-02</_>
    <_>
      3.28136593e-01 7.87949562e-01 1.34108692e-01 1.95947085e-02</_>
    <_>
      4.43280339e-01 5.74646354e-01 8.65843445e-02 3.48829515e-02</_>
    <_>
      4.90046650e-01 5.36013722e-01 5.88174872e-02 3.61741707e-02</_>
    <_>
      4.71531004e-01 6.10200226e-01 1.13505177e-01 3.57297696e-02</_>
    <_>
      3.63411546e-01 8.73399198e-01 2.70649582e-01 3.04741878e-02</_>
    <_>
      5.68871498e-01 5.12922049e-01 7.84607902e-02 3.58394608e-02</_>
    <_>
      5.69386661e-01 5.31592131e-01 8.74477997e-02 3.02036069e-02</_>
    <_>
      5.11546373e-01 4.89860147e-01 4.41536456e-02 3.42621394e-02</_>
    <_>
      5.19464195e-01 6.65557623e-01 1.73086375e-01 3.12159918e-02</_>
    <_>
      6.35848284e-01 8.71651411e-01 2.77916998e-01 2.46908832e-02</_>
    <_>
      4.80670571e-01 5.06019235e-01 4.51026931e-02 2.89530829e-02</_>
    <_>
      4.87263232e-01 5.01895547e-01 4.50568721e-02 3.12984474e-02</_>
    <_>
      4.31039840e-01 6.82961345e-01 1.91308096e-01 3.70252579e-02</_>
    <_>
      5.67334771e-01 7.12363243e-01 2.06587061e-01 3.54926102e-02</_>
    <_>
      5.72211981e-01 5.40907860e-01 9.86789688e-02 2.94861998e-02</_>
    <_>
      5.80729425e-01 5.83603024e-01 1.37061775e-01 3.10526118e-02</_>
    <_>
      4.98991489e-01 5.37760615e-01 5.05134650e-02 3.84004228e-02</_>
    <_>
      5.66151917e-01 4.86073852e-01 7.50200301e-02 2.99702380e-02</_>
    <_>
      4.72217023e-01 5.58330238e-01 7.39221871e-02 3.54940519e-02</_>
    <_>
      4.80378151e-01 5.68636954e-01 7.99329653e-02 3.60123962e-02</_>
    <_>
      4.27568138e-01 7.28142619e-01 2.38897264e-01 3.66045758e-02</_>
    <_>
      4.82133210e-01 5.19886255e-01 5.70563078e-02 2.95477789e-02</_>
    <_>
      4.71104115e-01 6.47793114e-01 1.62786886e-01 3.22805755e-02</_>
    <_>
      4.91746128e-01 5.12196243e-01 4.36146073e-02 3.71996611e-02</_>
    <_>
      5.81186354e-01 5.11121035e-01 9.71971452e-02 3.12920697e-02</_>
    <_>
      4.31627631e-01 6.68579996e-01 1.90686911e-01 3.42415981e-02</_>
    <_>
      5.72049081e-01 4.96349692e-01 9.63310748e-02 2.75041815e-02</_>
    <_>
      3.81785572e-01 8.74308467e-01 2.83413619e-01 2.01848634e-02</_>
    <_>
      4.51295853e-01 5.69040298e-01 9.35429856e-02 3.01558506e-02</_>
    <_>
      4.95759040e-01 5.28859198e-01 5.43773398e-02 3.06009650e-02</_>
    <_>
      5.70223033e-01 5.34876645e-01 9.36976150e-02 3.25889066e-02</_>
    <_>
      5.69678664e-01 5.98217964e-01 1.31145433e-01 2.86919437e-02</_>
    <_>
      5.68577647e-01 4.92188573e-01 7.64124766e-02 2.95481309e-02</_>
    <_>
      4.66568619e-01 5.61746955e-01 8.13234001e-02 3.14317755e-02</_>
    <_>
      4.99820232e-01 5.24442255e-01 4.18276191e-02 3.52057964e-02</_>
    <_>
      5.64964473e-01 4.97475713e-01 7.38962367e-02 3.55081968e-02</_>
    <_>
      5.71798980e-01 5.05302310e-01 9.52905267e-02 3.03463880e-02</_>
    <_>
      4.59410787e-01 7.05954313e-01 1.33660138e-01 3.03102471e-02</_>
    <_>
      5.60852945e-01 6.97502494e-01 2.09343284e-01 4.20825519e-02</_>
    <_>
      5.69073141e-01 5.60765028e-01 1.05197445e-01 3.24414596e-02</_>
    <_>
      4.01727200e-01 7.26454735e-01 2.17814773e-01 3.56159098e-02</_>
    <_>
      5.86053789e-01 5.51509917e-01 1.22609206e-01 2.90794298e-02</_>
    <_>
      6.70518577e-01 8.82827103e-01 2.68642306e-01 3.12450938e-02</_>
    <_>
      4.89631027e-01 4.88397688e-01 4.01809439e-02 3.21111828e-02</_>
    <_>
      5.77612102e-01 5.33069313e-01 1.06937259e-01 3.19934562e-02</_>
    <_>
      5.74720681e-01 5.23750842e-01 1.01165630e-01 3.03118154e-02</_>
    <_>
      4.86084044e-01 5.70403814e-01 8.47061425e-02 3.46937813e-02</_>
    <_>
      5.09257078e-01 6.07153177e-01 1.16813324e-01 2.80383863e-02</_>
    <_>
      4.90773529e-01 5.36692500e-01 5.00804819e-02 3.89365964e-02</_>
    <_>
      4.87836540e-01 5.75773835e-01 8.23965520e-02 3.78542021e-02</_>
    <_>
      4.92642403e-01 5.58643222e-01 7.44171515e-02 3.44849192e-02</_>
    <_>
      4.62484956e-01 6.72483563e-01 1.90695524e-01 3.21988948e-02</_>
    <_>
      5.04647970e-01 5.15797079e-01 3.94655690e-02 3.46243717e-02</_>
    <_>
      5.52325189e-01 6.21144891e-01 1.41045392e-01 2.90181413e-02</_>
    <_>
      4.97425437e-01 5.45008302e-01 6.35693595e-02 3.79045457e-02</_>
    <_>
      5.76920390e-01 5.16967356e-01 9.96545926e-02 3.08497250e-02</_>
    <_>
      4.20379043e-01 8.71029556e-01 2.66860664e-01 4.23987508e-02</_>
    <_>
      4.90844399e-01 5.54889858e-01 7.01564848e-02 3.27150114e-02</_>
    <_>
      5.66342175e-01 6.72270715e-01 1.89234972e-01 4.60087471e-02</_>
    <_>
      4.89177585e-01 5.18743038e-01 4.11011837e-02 3.25614251e-02</_>
    <_>
      5.77343404e-01 4.93528724e-01 1.06703490e-01 2.75467560e-02</_>
    <_>
      5.08440852e-01 5.00974476e-01 5.15424870e-02 3.24511789e-02</_>
    <_>
      5.01914024e-01 5.17069459e-01 4.29082438e-02 3.63754295e-02</_>
    <_>
      4.93262291e-01 4.97467995e-01 3.97888087e-02 3.39465253e-02</_>
    <_>
      5.02432883e-01 5.40807903e-01 6.68995902e-02 3.13096717e-02</_>
    <_>
      4.18130726e-01 6.99540257e-01 2.12935269e-01 3.59489881e-02</_>
    <_>
      4.97280568e-01 5.13438523e-01 4.39565256e-02 3.43552306e-02</_>
    <_>
      5.72878778e-01 5.93744636e-01 1.54367611e-01 2.55412422e-02</_>
    <_>
      5.94559610e-01 3.33890587e-01 6.62728846e-01 1.73851594e-01</_>
    <_>
      4.11022276e-01 7.22336113e-01 2.22943708e-01 3.72175686e-02</_>
    <_>
      5.75829387e-01 5.14382124e-01 9.65508372e-02 3.20975669e-02</_>
    <_>
      5.09591758e-01 6.01930857e-01 1.15378119e-01 2.86873952e-02</_>
    <_>
      5.36417782e-01 6.57327592e-01 1.68712601e-01 3.29165347e-02</_>
    <_>
      4.92294133e-01 5.57582200e-01 6.79790676e-02 3.86133194e-02</_>
    <_>
      4.81957018e-01 5.53454816e-01 6.78929985e-02 3.42031308e-02</_>
    <_>
      5.04235208e-01 5.22895098e-01 4.64240052e-02 3.13007198e-02</_>
    <_>
      3.90611291e-01 8.79123628e-01 2.80164331e-01 3.01341154e-02</_>
    <_>
      5.73115170e-01 5.78460515e-01 1.28380314e-01 3.05315331e-02</_>
    <_>
      4.93036538e-01 7.38735855e-01 1.47197768e-01 3.63572165e-02</_>
    <_>
      4.81540978e-01 5.07665455e-01 5.28679341e-02 3.25115137e-02</_>
    <_>
      5.56833923e-01 5.97227335e-01 1.15646571e-01 3.26668397e-02</_>
    <_>
      4.91627365e-01 5.93496442e-01 1.09579809e-01 3.56898643e-02</_>
    <_>
      4.94493544e-01 5.12064993e-01 3.85056362e-02 3.60802077e-02</_>
    <_>
      4.91631448e-01 5.77434123e-01 8.92055258e-02 3.50500382e-02</_>
    <_>
      4.87350881e-01 5.50003350e-01 7.36995861e-02 3.48465964e-02</_>
    <_>
      5.68170726e-01 5.21915615e-01 8.35715532e-02 2.83056516e-02</_>
    <_>
      4.52169538e-01 6.18409812e-01 1.31697834e-01 3.36965472e-02</_>
    <_>
      5.08172154e-01 5.23150742e-01 5.48896417e-02 3.55844423e-02</_>
    <_>
      5.67826033e-01 6.21585727e-01 1.33464843e-01 3.56570967e-02</_>
    <_>
      4.85917419e-01 5.46526074e-01 5.98188080e-02 3.61030251e-02</_>
    <_>
      5.91411352e-01 8.51141930e-01 2.77617007e-01 3.51119749e-02</_>
    <_>
      5.06294966e-01 6.16725147e-01 1.34776428e-01 3.74549367e-02</_>
    <_>
      5.31502187e-01 6.10641420e-01 1.22383945e-01 2.41040494e-02</_>
    <_>
      5.65180123e-01 4.91103798e-01 7.58896917e-02 3.12234778e-02</_>
    <_>
      4.86910164e-01 6.58394575e-01 9.45653543e-02 3.32973376e-02</_>
    <_>
      4.86047149e-01 6.59300387e-01 8.90162289e-02 3.61178443e-02</_>
    <_>
      5.09781599e-01 7.51882315e-01 8.27786699e-02 2.08620001e-02</_>
    <_>
      4.87120211e-01 6.59055412e-01 9.45300832e-02 3.28207090e-02</_>
    <_>
      5.10053098e-01 7.51908422e-01 8.43990892e-02 2.13690698e-02</_>
    <_>
      5.09830356e-01 7.50687242e-01 8.58816281e-02 2.08557528e-02</_>
    <_>
      4.94007587e-01 7.67962337e-01 1.53686583e-01 2.80026104e-02</_>
    <_>
      5.08872509e-01 7.48965681e-01 8.86517316e-02 1.93216912e-02</_>
    <_>
      4.86944616e-01 6.58657014e-01 9.49332342e-02 3.32510993e-02</_>
    <_>
      3.12089503e-01 4.77369517e-01 3.48368108e-01 7.27505907e-02</_>
    <_>
      5.10947406e-01 7.51008868e-01 8.12800676e-02 2.10787188e-02</_>
    <_>
      4.96652216e-01 7.76151955e-01 1.39421389e-01 2.77492758e-02</_>
    <_>
      4.96253014e-01 7.71560133e-01 1.39939591e-01 2.79129874e-02</_>
    <_>
      4.93070334e-01 7.32481122e-01 1.65674731e-01 3.46165188e-02</_>
    <_>
      4.87051010e-01 6.58522785e-01 9.39945504e-02 3.32049355e-02</_>
    <_>
      5.09941518e-01 7.50429809e-01 8.69980603e-02 2.08391473e-02</_>
    <_>
      4.87008393e-01 6.58908129e-01 9.43768173e-02 3.29611972e-02</_>
    <_>
      4.87804711e-01 6.59430385e-01 9.15360153e-02 3.41485776e-02</_>
    <_>
      4.86732632e-01 6.58427238e-01 9.57642421e-02 3.20314392e-02</_>
    <_>
      5.11204898e-01 7.51132607e-01 8.15149099e-02 1.96831338e-02</_>
    <_>
      4.92436707e-01 7.34318078e-01 1.65305063e-01 3.89921740e-02</_>
    <_>
      4.87451702e-01 6.59355700e-01 9.09710899e-02 3.48411910e-02</_>
    <_>
      4.80347693e-01 8.15043628e-01 1.79384530e-01 3.49633433e-02</_>
    <_>
      5.10142148e-01 7.51569927e-01 8.53454173e-02 2.09121741e-02</_>
    <_>
      4.95208442e-01 7.71673203e-01 1.54010668e-01 2.74502430e-02</_>
    <_>
      4.87398148e-01 6.58518255e-01 9.37045589e-02 3.39252725e-02</_>
    <_>
      4.85703737e-01 6.59314275e-01 9.08501372e-02 3.62870730e-02</_>
    <_>
      4.95722502e-01 7.76489198e-01 1.45700708e-01 2.82762628e-02</_>
    <_>
      4.88339752e-01 6.60948217e-01 7.92077407e-02 3.53728309e-02</_>
    <_>
      4.89156574e-01 6.63050950e-01 7.97650442e-02 3.49690728e-02</_>
    <_>
      4.81281549e-01 8.13586354e-01 1.78144991e-01 3.47896703e-02</_>
    <_>
      4.82917309e-01 7.66525149e-01 1.84800714e-01 3.05984728e-02</_>
    <_>
      4.87268597e-01 6.59778833e-01 9.08750147e-02 3.36206816e-02</_>
    <_>
      4.92583811e-01 7.32584596e-01 1.57907948e-01 3.29776555e-02</_>
    <_>
      4.87057298e-01 6.60574794e-01 8.91058519e-02 3.50880027e-02</_>
    <_>
      4.88344759e-01 6.62012935e-01 8.41870010e-02 3.54202725e-02</_>
    <_>
      4.85778660e-01 5.67438185e-01 7.36216009e-01 1.03446044e-01</_>
    <_>
      4.88286346e-01 6.61027193e-01 7.96370059e-02 3.53130028e-02</_>
    <_>
      5.09513915e-01 7.50437737e-01 8.52349997e-02 2.08331719e-02</_>
    <_>
      4.90324020e-01 6.63725853e-01 8.10342208e-02 3.48476432e-02</_>
    <_>
      4.87560481e-01 6.59521043e-01 9.22666565e-02 3.36323418e-02</_>
    <_>
      4.85486716e-01 6.56419456e-01 1.00151964e-01 3.20080630e-02</_>
    <_>
      4.88172740e-01 6.60766840e-01 8.91972408e-02 3.41641419e-02</_>
    <_>
      4.87649500e-01 6.59944534e-01 9.13192108e-02 3.39254104e-02</_>
    <_>
      4.86941487e-01 6.60637617e-01 9.08687264e-02 3.55170108e-02</_>
    <_>
      4.88339752e-01 6.60948217e-01 7.92077407e-02 3.53728309e-02</_>
    <_>
      5.09615541e-01 7.50931084e-01 8.51178691e-02 2.07461547e-02</_>
    <_>
      4.87544477e-01 6.58959031e-01 9.15872082e-02 3.30047943e-02</_>
    <_>
      4.88908589e-01 6.60567284e-01 8.24169070e-02 3.38093676e-02</_>
    <_>
      4.74976182e-01 7.22079039e-01 1.19293675e-01 2.82961838e-02</_>
    <_>
      4.95438159e-01 7.66607285e-01 1.55241415e-01 2.83698365e-02</_>
    <_>
      4.94374245e-01 7.66804397e-01 1.43114880e-01 2.84021758e-02</_>
    <_>
      4.81063187e-01 8.16627860e-01 1.77644566e-01 3.55701596e-02</_>
    <_>
      5.07925332e-01 7.55745292e-01 8.88008997e-02 1.66856833e-02</_>
    <_>
      4.93764549e-01 7.32777715e-01 1.62086308e-01 3.50625552e-02</_>
    <_>
      5.09491980e-01 7.51560867e-01 8.56528357e-02 2.05359887e-02</_>
    <_>
      4.94818091e-01 7.67220438e-01 1.46934018e-01 2.80355569e-02</_>
    <_>
      5.09514391e-01 7.50727713e-01 8.53146389e-02 2.13686582e-02</_>
    <_>
      4.95968521e-01 7.69535005e-01 1.43774301e-01 2.74391156e-02</_>
    <_>
      4.91832525e-01 7.26365447e-01 1.67459622e-01 3.62350494e-02</_>
    <_>
      4.87291276e-01 6.60525501e-01 9.00398493e-02 3.48448940e-02</_>
    <_>
      4.93026435e-01 7.31964409e-01 1.64286062e-01 3.45904566e-02</_>
    <_>
      4.92489517e-01 7.25751579e-01 1.58054560e-01 3.60402614e-02</_>
    <_>
      4.94646519e-01 7.71901131e-01 1.50262728e-01 2.88144723e-02</_>
    <_>
      4.94372874e-01 7.36094832e-01 1.65051386e-01 3.49860154e-02</_>
    <_>
      4.94538724e-01 7.69927740e-01 1.60710603e-01 2.90449820e-02</_>
    <_>
      5.09539604e-01 7.51471102e-01 8.36336091e-02 2.11008750e-02</_>
    <_>
      4.96027052e-01 7.72888124e-01 1.47776991e-01 2.71900780e-02</_>
    <_>
      4.93974149e-01 7.35493481e-01 1.63023040e-01 3.41285281e-02</_>
    <_>
      4.92680550e-01 7.30319440e-01 1.66281223e-01 3.73424441e-02</_>
    <_>
      5.09622335e-01 7.50203729e-01 8.54793340e-02 2.01206785e-02</_>
    <_>
      5.10220945e-01 7.50086904e-01 8.76422375e-02 2.08605211e-02</_>
    <_>
      4.86150265e-01 6.60229027e-01 8.97109210e-02 3.51071283e-02</_>
    <_>
      4.91711706e-01 7.36190915e-01 1.64237201e-01 3.71802077e-02</_>
    <_>
      4.94057506e-01 7.69798636e-01 1.45112380e-01 2.81809326e-02</_>
    <_>
      4.94299799e-01 7.36517906e-01 1.63058072e-01 3.45757790e-02</_>
    <_>
      4.93340403e-01 7.63948262e-01 1.56978577e-01 2.92706527e-02</_>
    <_>
      4.93125081e-01 7.28263319e-01 1.59470841e-01 3.49423289e-02</_>
    <_>
      4.96411800e-01 7.75837481e-01 1.46793604e-01 2.81185545e-02</_>
    <_>
      4.80091274e-01 8.15739334e-01 1.75422817e-01 3.42573859e-02</_>
    <_>
      4.92658883e-01 7.65999079e-01 1.54710427e-01 3.02475579e-02</_>
    <_>
      5.09388030e-01 7.50769436e-01 8.62974823e-02 2.04924326e-02</_>
    <_>
      4.94089752e-01 7.69350469e-01 1.48437738e-01 2.87503339e-02</_>
    <_>
      4.91364032e-01 7.34073520e-01 1.68267965e-01 3.41846831e-02</_>
    <_>
      4.93379116e-01 7.33451605e-01 1.62969515e-01 3.47605087e-02</_>
    <_>
      4.92905974e-01 7.38109946e-01 1.64290056e-01 3.59124355e-02</_>
    <_>
      4.94856805e-01 7.71729589e-01 1.56706125e-01 2.88679432e-02</_>
    <_>
      4.94838208e-01 7.68214285e-01 1.46466509e-01 2.83728242e-02</_>
    <_>
      3.15360904e-01 4.75508004e-01 3.61009270e-01 6.96572810e-02</_>
    <_>
      4.95686084e-01 7.72619784e-01 1.50305331e-01 2.86625680e-02</_>
    <_>
      4.95305181e-01 7.71610558e-01 1.46799386e-01 2.88155060e-02</_>
    <_>
      4.88023669e-01 6.59592569e-01 9.22330394e-02 3.39918695e-02</_>
    <_>
      4.95883524e-01 7.72741556e-01 1.49778053e-01 2.79562846e-02</_>
    <_>
      4.96676475e-01 7.76399791e-01 1.43646717e-01 2.74535660e-02</_>
    <_>
      4.94343638e-01 7.34524488e-01 1.66988105e-01 3.37168723e-02</_>
    <_>
      4.85592633e-01 6.58434868e-01 9.51329246e-02 3.57379988e-02</_>
    <_>
      4.94882524e-01 7.72523284e-01 1.50036529e-01 2.87679546e-02</_>
    <_>
      4.87016410e-01 6.57924354e-01 9.46801826e-02 3.39398235e-02</_>
    <_>
      4.88908589e-01 6.60567284e-01 8.24169070e-02 3.38093676e-02</_>
    <_>
      4.94848669e-01 7.68836617e-01 1.50615692e-01 2.86028590e-02</_>
    <_>
      4.92491543e-01 7.35449255e-01 1.64321437e-01 3.68287489e-02</_>
    <_>
      4.87492889e-01 6.58577800e-01 9.64949057e-02 3.28052379e-02</_>
    <_>
      4.87965524e-01 6.60114050e-01 8.42941031e-02 3.52314562e-02</_>
    <_>
      4.96757865e-01 7.76182711e-01 1.41980931e-01 2.79117841e-02</_>
    <_>
      4.91364032e-01 7.34073520e-01 1.68267965e-01 3.41846831e-02</_>
    <_>
      4.86528099e-01 6.57312155e-01 9.67564732e-02 3.31065208e-02</_>
    <_>
      5.09736300e-01 7.51521409e-01 8.52565467e-02 1.76510140e-02</_>
    <_>
      4.94848669e-01 7.68836617e-01 1.50615692e-01 2.86028590e-02</_>
    <_>
      4.96116489e-01 7.74962187e-01 1.49947673e-01 2.90733185e-02</_>
    <_>
      5.09543955e-01 7.51015604e-01 8.54360312e-02 2.08231471e-02</_>
    <_>
      4.93708760e-01 7.32797205e-01 1.63085729e-01 3.40773910e-02</_>
    <_>
      4.87147987e-01 6.58287704e-01 9.97574180e-02 3.18757705e-02</_>
    <_>
      3.90311182e-01 6.58904314e-01 1.14921026e-01 2.99158450e-02</_>
    <_>
      3.70921761e-01 7.63541877e-01 1.28595173e-01 2.62668096e-02</_>
    <_>
      5.61052442e-01 4.85536754e-01 5.78674860e-02 2.64303163e-02</_>
    <_>
      5.49738765e-01 6.87641263e-01 1.18765004e-01 2.58143619e-02</_>
    <_>
      5.25192320e-01 6.36424363e-01 8.36813673e-02 2.70662475e-02</_>
    <_>
      4.47156638e-01 6.18423223e-01 8.86349007e-02 2.72122025e-02</_>
    <_>
      3.82041723e-01 6.88043833e-01 1.39032170e-01 2.82671805e-02</_>
    <_>
      5.89897215e-01 8.25829148e-01 1.38884991e-01 2.93473434e-02</_>
    <_>
      6.47831142e-01 4.50545877e-01 8.84828046e-02 2.90279612e-02</_>
    <_>
      3.91116619e-01 6.40040636e-01 1.28896147e-01 2.70842798e-02</_>
    <_>
      5.67222416e-01 4.70664054e-01 6.41718283e-02 3.06154080e-02</_>
    <_>
      5.58015108e-01 7.42860734e-01 1.26761466e-01 2.69062221e-02</_>
    <_>
      4.47516590e-01 6.18953586e-01 9.23241377e-02 2.69886050e-02</_>
    <_>
      5.36430955e-01 6.56533062e-01 9.83331949e-02 2.86263116e-02</_>
    <_>
      6.42679811e-01 4.61910278e-01 9.18876678e-02 2.81655081e-02</_>
    <_>
      4.86251086e-01 5.57193100e-01 5.76815382e-02 2.80420799e-02</_>
    <_>
      4.54090893e-01 5.86312890e-01 7.14717135e-02 2.79050730e-02</_>
    <_>
      5.63940763e-01 4.77070212e-01 5.87092713e-02 2.29362771e-02</_>
    <_>
      6.47443175e-01 4.86580580e-01 1.04030520e-01 2.89333407e-02</_>
    <_>
      5.13218641e-01 6.14799500e-01 5.22930138e-02 3.00918240e-02</_>
    <_>
      4.41888452e-01 6.97091699e-01 1.21312790e-01 2.50197109e-02</_>
    <_>
      5.64494371e-01 4.70757306e-01 5.75699359e-02 3.14348191e-02</_>
    <_>
      3.82170618e-01 6.86761260e-01 1.35417521e-01 2.64290255e-02</_>
    <_>
      4.33428437e-01 6.57923460e-01 1.12835370e-01 2.87568439e-02</_>
    <_>
      3.72645378e-01 8.05185199e-01 1.84987709e-01 2.83787567e-02</_>
    <_>
      4.81199801e-01 8.76052201e-01 1.70448169e-01 2.19293460e-02</_>
    <_>
      4.42878753e-01 6.89093947e-01 1.25864595e-01 2.55144536e-02</_>
    <_>
      3.91785234e-01 6.49137139e-01 1.24096863e-01 2.90991142e-02</_>
    <_>
      4.36614543e-01 5.91031075e-01 7.68213794e-02 2.51222979e-02</_>
    <_>
      3.78382266e-01 6.95665777e-01 1.48528188e-01 2.76158769e-02</_>
    <_>
      6.44105673e-01 4.97543037e-01 1.06249467e-01 2.88193543e-02</_>
    <_>
      5.86503983e-01 8.21216404e-01 1.45363167e-01 2.45951694e-02</_>
    <_>
      6.40025556e-01 4.67922211e-01 1.02328792e-01 2.69122291e-02</_>
    <_>
      5.62879443e-01 4.71300542e-01 5.83650656e-02 2.85046026e-02</_>
    <_>
      5.65831900e-01 4.73134637e-01 6.08949028e-02 2.43958570e-02</_>
    <_>
      5.95391273e-01 8.29075754e-01 1.63902864e-01 2.49030869e-02</_>
    <_>
      5.15635431e-01 6.17302716e-01 6.12035543e-02 2.95651481e-02</_>
    <_>
      4.88336563e-01 5.59414506e-01 6.29263222e-02 2.70180181e-02</_>
    <_>
      4.34328467e-01 6.65559232e-01 1.18949555e-01 2.92812902e-02</_>
    <_>
      5.59844553e-01 7.48038113e-01 1.29228815e-01 2.62297988e-02</_>
    <_>
      4.87999618e-01 5.58162570e-01 6.03360161e-02 2.70460267e-02</_>
    <_>
      5.54498494e-01 7.47135103e-01 1.01457469e-01 2.76361369e-02</_>
    <_>
      5.62986732e-01 4.88574594e-01 5.76785170e-02 2.34225821e-02</_>
    <_>
      3.73450756e-01 7.98695982e-01 1.87348366e-01 2.83978544e-02</_>
    <_>
      5.66844821e-01 4.73090261e-01 6.16117567e-02 2.46641412e-02</_>
    <_>
      5.43539107e-01 6.48570478e-01 9.29366052e-02 2.71511655e-02</_>
    <_>
      3.59961241e-01 7.72296190e-01 6.54151067e-02 3.19895968e-02</_>
    <_>
      4.32333112e-01 6.62819982e-01 1.20021470e-01 3.01281698e-02</_>
    <_>
      4.37677473e-01 6.48900688e-01 1.03094593e-01 2.87047997e-02</_>
    <_>
      5.14392674e-01 6.13315582e-01 5.72454967e-02 2.88675074e-02</_>
    <_>
      5.43761551e-01 6.56375706e-01 1.01839155e-01 2.77746450e-02</_>
    <_>
      3.70413601e-01 7.57540166e-01 1.24378256e-01 2.93599069e-02</_>
    <_>
      4.48686749e-01 5.88369131e-01 7.44950548e-02 2.74488907e-02</_>
    <_>
      4.35226113e-01 6.55390620e-01 1.11218438e-01 2.89750807e-02</_>
    <_>
      5.69374144e-01 8.57734382e-01 1.34259447e-01 2.51476262e-02</_>
    <_>
      3.74137044e-01 7.02032030e-01 1.52268812e-01 2.67479364e-02</_>
    <_>
      6.47443175e-01 4.86580580e-01 1.04030520e-01 2.89333407e-02</_>
    <_>
      4.77167070e-01 8.66848886e-01 1.65023729e-01 2.32781116e-02</_>
    <_>
      6.34974718e-01 5.14837682e-01 1.17968015e-01 2.76537351e-02</_>
    <_>
      5.56159139e-01 5.13481021e-01 5.69294617e-02 2.63507441e-02</_>
    <_>
      5.68744600e-01 4.71380025e-01 6.30156323e-02 2.78156437e-02</_>
    <_>
      5.40416121e-01 6.67377412e-01 1.05613492e-01 2.83656511e-02</_>
    <_>
      4.45263594e-01 7.07892179e-01 1.24794148e-01 2.48127822e-02</_>
    <_>
      5.38994908e-01 6.66957676e-01 1.11474663e-01 2.64644418e-02</_>
    <_>
      5.28767347e-01 6.40701592e-01 8.12363252e-02 2.83173602e-02</_>
    <_>
      5.66108465e-01 4.71049279e-01 6.19799308e-02 3.10459249e-02</_>
    <_>
      6.38896644e-01 4.73288268e-01 1.09759361e-01 2.60507464e-02</_>
    <_>
      3.82456481e-01 6.88008368e-01 1.38740316e-01 2.82358825e-02</_>
    <_>
      5.34220040e-01 6.53550148e-01 9.74353179e-02 2.76049208e-02</_>
    <_>
      3.93732339e-01 6.41548336e-01 1.20090328e-01 2.80378703e-02</_>
    <_>
      5.43402433e-01 6.45149529e-01 9.90242511e-02 2.68828236e-02</_>
    <_>
      3.73482555e-01 8.02813590e-01 1.82465002e-01 2.84409709e-02</_>
    <_>
      5.59978127e-01 7.10777223e-01 8.65634754e-02 2.55929958e-02</_>
    <_>
      5.86912751e-01 7.95444608e-01 1.79629639e-01 2.71661263e-02</_>
    <_>
      5.51528633e-01 7.30073631e-01 1.18698381e-01 2.57955082e-02</_>
    <_>
      5.68520427e-01 4.71331805e-01 6.70798495e-02 2.86370199e-02</_>
    <_>
      6.36041999e-01 4.77341950e-01 1.08771019e-01 2.51939390e-02</_>
    <_>
      4.85264838e-01 8.86082649e-01 1.73883826e-01 2.22583376e-02</_>
    <_>
      4.44343060e-01 6.26409233e-01 5.81959300e-02 3.17787640e-02</_>
    <_>
      4.45914537e-01 7.18148410e-01 1.23942286e-01 2.48356275e-02</_>
    <_>
      5.89656711e-01 8.29248607e-01 1.49839878e-01 2.61498354e-02</_>
    <_>
      4.32829112e-01 5.91045022e-01 7.14224279e-02 2.55994145e-02</_>
    <_>
      5.44225156e-01 6.75094247e-01 1.09558247e-01 2.74405740e-02</_>
    <_>
      4.91227508e-01 5.46177149e-01 6.05079196e-02 2.82183029e-02</_>
    <_>
      4.52326447e-01 6.13700867e-01 8.29223245e-02 2.72221453e-02</_>
    <_>
      5.91402590e-01 8.15295458e-01 1.42094046e-01 2.36352980e-02</_>
    <_>
      3.72310460e-01 8.04747701e-01 1.83154896e-01 2.85472311e-02</_>
    <_>
      5.94154954e-01 8.23454559e-01 1.63374841e-01 2.66398843e-02</_>
    <_>
      5.89581847e-01 8.26098740e-01 1.47736654e-01 2.51149014e-02</_>
    <_>
      5.58056891e-01 7.29515672e-01 1.11600973e-01 2.57216822e-02</_>
    <_>
      6.37602568e-01 4.91961837e-01 1.09552979e-01 2.64089797e-02</_>
    <_>
      3.82329553e-01 6.85868979e-01 1.44803971e-01 2.76509989e-02</_>
    <_>
      3.69560212e-01 7.75389373e-01 1.34783998e-01 2.64643189e-02</_>
    <_>
      3.69890183e-01 7.68607259e-01 1.32049009e-01 2.80181170e-02</_>
    <_>
      3.75833720e-01 7.64586866e-01 1.69003889e-01 2.73180734e-02</_>
    <_>
      6.36553049e-01 4.79665965e-01 1.08733609e-01 2.55405102e-02</_>
    <_>
      5.94791651e-01 8.72334421e-01 2.35336021e-01 2.17894483e-02</_>
    <_>
      4.31130797e-01 6.64125264e-01 1.18901372e-01 3.04044168e-02</_>
    <_>
      5.63261747e-01 4.74347860e-01 5.88358976e-02 2.39619333e-02</_>
    <_>
      4.43467021e-01 7.03785002e-01 9.82333720e-02 2.67839674e-02</_>
    <_>
      5.89497805e-01 8.11722815e-01 1.47042692e-01 2.25585885e-02</_>
    <_>
      5.66418648e-01 4.69982564e-01 6.28033057e-02 3.04511972e-02</_>
    <_>
      4.32458848e-01 6.62507296e-01 1.14313290e-01 3.12787667e-02</_>
    <_>
      6.38026357e-01 5.21188915e-01 1.18220605e-01 2.48484053e-02</_>
    <_>
      5.60499132e-01 5.11436701e-01 6.58112392e-02 2.39901561e-02</_>
    <_>
      5.58054149e-01 7.45130897e-01 1.15735307e-01 2.55226512e-02</_>
    <_>
      5.59073091e-01 4.96541560e-01 5.64698093e-02 2.71141473e-02</_>
    <_>
      5.59808016e-01 5.02116680e-01 5.43632917e-02 2.70890612e-02</_>
    <_>
      5.72266281e-01 8.59556615e-01 1.42698631e-01 2.36607473e-02</_>
    <_>
      5.65643370e-01 4.69845980e-01 6.09624535e-02 3.04248743e-02</_>
    <_>
      5.93962312e-01 8.21751833e-01 1.58295155e-01 2.62938514e-02</_>
    <_>
      5.62351763e-01 4.70650047e-01 6.10662811e-02 2.77764443e-02</_>
    <_>
      5.25992095e-01 6.36350989e-01 7.72895962e-02 2.90860739e-02</_>
    <_>
      5.59842944e-01 4.90487576e-01 5.97866960e-02 2.66941097e-02</_>
    <_>
      4.64914143e-01 5.78390419e-01 6.72569796e-02 2.55976133e-02</_>
    <_>
      5.41072607e-01 6.12812400e-01 7.32139349e-02 2.81038079e-02</_>
    <_>
      5.63190222e-01 4.99271929e-01 5.88133521e-02 2.56072283e-02</_>
    <_>
      4.88431156e-01 5.58779776e-01 4.68608588e-02 3.00044846e-02</_>
    <_>
      4.36944276e-01 6.70610726e-01 1.15851894e-01 2.97643878e-02</_>
    <_>
      5.63240707e-01 4.93135989e-01 5.88709526e-02 2.36449651e-02</_>
    <_>
      5.41375756e-01 6.18088782e-01 8.06118771e-02 2.69282330e-02</_>
    <_>
      4.93587762e-01 5.37070990e-01 4.97809313e-02 3.07074953e-02</_>
    <_>
      3.78807336e-01 6.95547879e-01 1.47092253e-01 2.65541598e-02</_>
    <_>
      4.88524824e-01 5.57681859e-01 6.15200214e-02 2.82650385e-02</_>
    <_>
      6.37839258e-01 5.19866645e-01 1.08780101e-01 2.76021399e-02</_>
    <_>
      5.56792080e-01 7.06564128e-01 9.46563706e-02 2.42110603e-02</_>
    <_>
      5.90975940e-01 8.15290868e-01 1.37725100e-01 2.91854981e-02</_>
    <_>
      5.63527107e-01 4.72015411e-01 5.97823337e-02 2.65918598e-02</_>
    <_>
      5.42265773e-01 6.37441039e-01 8.50721821e-02 2.92141195e-02</_>
    <_>
      5.52292764e-01 7.38930523e-01 9.14590508e-02 2.77507789e-02</_>
    <_>
      5.52206755e-01 7.09446013e-01 9.31950733e-02 3.01948059e-02</_>
    <_>
      3.92374068e-01 6.53273582e-01 1.22542597e-01 2.91665569e-02</_>
    <_>
      5.84477067e-01 8.13336730e-01 1.73175991e-01 2.49303170e-02</_>
    <_>
      5.62771142e-01 4.77594733e-01 5.82231879e-02 2.62040962e-02</_>
    <_>
      5.59853435e-01 7.13764071e-01 9.53671038e-02 2.57512573e-02</_>
    <_>
      5.59618950e-01 7.10674107e-01 9.78451744e-02 2.40338389e-02</_>
    <_>
      4.64575142e-01 6.10389829e-01 8.48936513e-02 2.57931668e-02</_>
    <_>
      5.43191969e-01 6.74268365e-01 1.10195361e-01 2.69187614e-02</_>
    <_>
      5.94843566e-01 8.78211558e-01 2.24866673e-01 2.58807279e-02</_>
    <_>
      5.22206247e-01 6.27555013e-01 7.20952451e-02 2.81009488e-02</_>
    <_>
      5.20167470e-01 6.21665657e-01 6.37873039e-02 3.27663422e-02</_>
    <_>
      6.46830559e-01 4.92509246e-01 1.06150679e-01 2.82176659e-02</_>
    <_>
      4.62093949e-01 6.07734144e-01 7.63646886e-02 2.86562108e-02</_>
    <_>
      4.34868991e-01 6.54491425e-01 1.10004187e-01 3.05759199e-02</_>
    <_>
      4.80567425e-01 8.80945206e-01 1.56233877e-01 1.82241313e-02</_>
    <_>
      4.45520848e-01 5.91730416e-01 7.78968036e-02 2.42850911e-02</_>
    <_>
      5.63889861e-01 4.82551694e-01 5.77498302e-02 2.30260715e-02</_>
    <_>
      4.90442455e-01 5.49081683e-01 5.66150807e-02 2.92174276e-02</_>
    <_>
      5.54559648e-01 7.42442906e-01 9.38138664e-02 2.76645515e-02</_>
    <_>
      6.47443175e-01 4.86580580e-01 1.04030520e-01 2.89333407e-02</_></support_vectors>
  <decision_functions>
    <_>
      <sv_count>61</sv_count>
      <rho>-1.0583968878497814e+00</rho>
      <alpha>
        3.1250000000000000e+02 3.1250000000000000e+02
        3.1250000000000000e+02 3.1250000000000000e+02
        3.1250000000000000e+02 3.1250000000000000e+02
        3.1250000000000000e+02 9.6770776141213702e+01
        3.1250000000000000e+02 3.1250000000000000e+02
        1.0997666670344240e+02 3.1250000000000000e+02
        3.1250000000000000e+02 3.1250000000000000e+02
        3.1250000000000000e+02 3.1250000000000000e+02
        3.1250000000000000e+02 3.1250000000000000e+02
        3.1250000000000000e+02 3.1250000000000000e+02
        3.1250000000000000e+02 3.1250000000000000e+02
        1.1543046747084699e+02 3.1250000000000000e+02
        3.1250000000000000e+02 4.5107634224331449e+01
        3.1250000000000000e+02 3.1250000000000000e+02
        3.0750283670527423e+01 3.1250000000000000e+02
        3.1250000000000000e+02 3.1250000000000000e+02
        -3.1250000000000000e+02 -3.1250000000000000e+02
        -3.1250000000000000e+02 -3.1250000000000000e+02
        -3.1250000000000000e+02 -3.1250000000000000e+02
        -3.1250000000000000e+02 -3.1250000000000000e+02
        -3.1250000000000000e+02 -3.1250000000000000e+02
        -3.1250000000000000e+02 -3.1250000000000000e+02
        -3.1250000000000000e+02 -3.1250000000000000e+02
        -3.1250000000000000e+02 -3.1250000000000000e+02
        -3.1250000000000000e+02 -3.1250000000000000e+02
        -3.1250000000000000e+02 -3.1250000000000000e+02
        -2.5965360648183309e+02 -3.1250000000000000e+02
        -3.1250000000000000e+02 -3.1250000000000000e+02
        -1.3838222172852844e+02 -3.1250000000000000e+02
        -3.1250000000000000e+02 -3.1250000000000000e+02
        -3.1250000000000000e+02</alpha>
      <index>
        1 8 13 14 16 17 21 22 25 26 33 35 38 50 51 53 55 62 64 69 71 78
        81 82 85 89 91 94 96 99 103 104 116 120 125 127 138 140 143 148
        161 166 168 169 171 175 176 180 182 184 190 191 192 195 201 207
        208 211 212 217 218</index></_>
    <_>
      <sv_count>162</sv_count>
      <rho>1.8454537156403664e+01</rho>
      <alpha>
        2.1510347773125301e+02 3.1250000000000000e+02
        3.1250000000000000e+02 3.1250000000000000e+02
        3.1250000000000000e+02 1.5161964252502432e+02
        3.1250000000000000e+02 3.0742347868270798e+02
        3.1250000000000000e+02 3.1250000000000000e+02
        3.1250000000000000e+02 3.1250000000000000e+02
        3.1250000000000000e+02 3.1250000000000000e+02
        3.1250000000000000e+02 3.1250000000000000e+02
        3.1250000000000000e+02 3.1250000000000000e+02
        3.1250000000000000e+02 3.1250000000000000e+02
        3.1250000000000000e+02 3.1250000000000000e+02
        3.1250000000000000e+02 3.1250000000000000e+02
        3.1250000000000000e+02 3.1250000000000000e+02
        3.1250000000000000e+02 3.1250000000000000e+02
        3.1250000000000000e+02 3.1250000000000000e+02
        3.1250000000000000e+02 3.1250000000000000e+02
        3.1250000000000000e+02 3.1250000000000000e+02
        3.1250000000000000e+02 3.1250000000000000e+02
        3.1250000000000000e+02 3.1250000000000000e+02
        3.1250000000000000e+02 3.1250000000000000e+02
        3.1250000000000000e+02 3.1250000000000000e+02
        3.1250000000000000e+02 3.1250000000000000e+02
        3.1250000000000000e+02 3.1250000000000000e+02
        3.1250000000000000e+02 3.1250000000000000e+02
        3.1250000000000000e+02 3.1250000000000000e+02
        3.1250000000000000e+02 3.1250000000000000e+02
        3.1250000000000000e+02 3.1250000000000000e+02
        3.1250000000000000e+02 3.1250000000000000e+02
        3.1250000000000000e+02 3.1250000000000000e+02
        3.1250000000000000e+02 3.1250000000000000e+02
        3.1250000000000000e+02 3.0486407694447845e+01
        3.1250000000000000e+02 3.1250000000000000e+02
        3.1250000000000000e+02 3.1250000000000000e+02
        3.1250000000000000e+02 3.1250000000000000e+02
        3.1250000000000000e+02 3.1250000000000000e+02
        3.1250000000000000e+02 3.1250000000000000e+02
        3.1250000000000000e+02 3.1250000000000000e+02
        3.1250000000000000e+02 3.1250000000000000e+02
        3.1250000000000000e+02 3.1250000000000000e+02
        3.1250000000000000e+02 3.1250000000000000e+02
        3.1250000000000000e+02 -3.1250000000000000e+02
        -3.1250000000000000e+02 -3.1250000000000000e+02
        -3.1250000000000000e+02 -3.1250000000000000e+02
        -3.1250000000000000e+02 -3.1250000000000000e+02
        -3.1250000000000000e+02 -3.1250000000000000e+02
        -3.1250000000000000e+02 -3.1250000000000000e+02
        -3.1250000000000000e+02 -3.1250000000000000e+02
        -3.1250000000000000e+02 -3.1250000000000000e+02
        -3.1250000000000000e+02 -3.1250000000000000e+02
        -3.1250000000000000e+02 -3.1250000000000000e+02
        -3.1250000000000000e+02 -3.1250000000000000e+02
        -3.1250000000000000e+02 -3.1250000000000000e+02
        -3.1250000000000000e+02 -3.1250000000000000e+02
        -3.1250000000000000e+02 -3.1250000000000000e+02
        -3.1250000000000000e+02 -3.1250000000000000e+02
        -3.1250000000000000e+02 -3.1250000000000000e+02
        -3.1250000000000000e+02 -3.1250000000000000e+02
        -3.1250000000000000e+02 -3.1250000000000000e+02
        -3.1250000000000000e+02 -3.1250000000000000e+02
        -3.1250000000000000e+02 -3.1250000000000000e+02
        -3.1250000000000000e+02 -3.1250000000000000e+02
        -3.1250000000000000e+02 -3.1250000000000000e+02
        -3.1250000000000000e+02 -3.1250000000000000e+02
        -3.1250000000000000e+02 -3.1250000000000000e+02
        -3.1250000000000000e+02 -3.1250000000000000e+02
        -3.1250000000000000e+02 -3.1250000000000000e+02
        -3.1250000000000000e+02 -3.1250000000000000e+02
        -3.1250000000000000e+02 -3.1250000000000000e+02
        -3.1250000000000000e+02 -3.1250000000000000e+02
        -3.1250000000000000e+02 -3.1250000000000000e+02
        -3.1250000000000000e+02 -3.1250000000000000e+02
        -3.1250000000000000e+02 -3.1250000000000000e+02
        -3.1250000000000000e+02 -2.0369148465699948e+02
        -3.1250000000000000e+02 -3.1250000000000000e+02
        -3.1250000000000000e+02 -3.1250000000000000e+02
        -3.1250000000000000e+02 -3.1250000000000000e+02
        -3.1250000000000000e+02 -2.0219906292993066e+00
        -1.8641953134713444e+02 -3.1250000000000000e+02
        -3.1250000000000000e+02 -3.1250000000000000e+02
        -3.1250000000000000e+02 -3.1250000000000000e+02
        -3.1250000000000000e+02 -3.1250000000000000e+02</alpha>
      <index>
        0 2 3 4 5 6 7 9 10 11 12 13 15 17 18 19 20 23 24 27 28 29 30 31
        32 34 36 37 39 40 41 42 43 44 45 46 47 48 49 50 52 54 56 57 58
        59 60 61 63 65 66 67 68 70 72 73 74 75 76 77 79 80 83 84 86 87
        88 89 90 91 92 93 95 96 97 98 100 101 102 105 106 219 221 224
        225 227 228 229 231 233 234 235 236 237 240 242 246 247 248 249
        251 252 253 256 257 259 261 263 266 267 271 272 274 275 277 278
        279 284 285 286 288 294 295 300 302 303 309 310 314 315 316 317
        320 321 322 323 325 326 328 330 332 333 335 336 337 338 340 341
        342 343 346 350 352 355 357 360 361 362 364 365 366 368</index></_>
    <_>
      <sv_count>182</sv_count>
      <rho>6.8353871492412310e+01</rho>
      <alpha>
        3.1250000000000000e+02 3.1250000000000000e+02
        3.1250000000000000e+02 3.1250000000000000e+02
        3.1250000000000000e+02 3.1250000000000000e+02
        3.1250000000000000e+02 3.1250000000000000e+02
        3.1250000000000000e+02 3.1250000000000000e+02
        2.8429969986987265e+02 2.6621679999628668e+02
        3.1250000000000000e+02 3.1250000000000000e+02
        3.1250000000000000e+02 3.1250000000000000e+02
        3.1250000000000000e+02 3.1250000000000000e+02
        3.1250000000000000e+02 3.1250000000000000e+02
        3.1250000000000000e+02 3.1250000000000000e+02
        3.1250000000000000e+02 3.1250000000000000e+02
        3.1250000000000000e+02 3.1250000000000000e+02
        3.1250000000000000e+02 2.7659336374377386e+02
        3.1250000000000000e+02 3.1250000000000000e+02
        3.1250000000000000e+02 3.1250000000000000e+02
        3.1250000000000000e+02 6.4811940388594650e+01
        3.1250000000000000e+02 3.1250000000000000e+02
        3.1250000000000000e+02 3.1250000000000000e+02
        3.1250000000000000e+02 3.1250000000000000e+02
        3.1250000000000000e+02 3.1250000000000000e+02
        3.1250000000000000e+02 3.1250000000000000e+02
        3.1250000000000000e+02 3.1250000000000000e+02
        3.1250000000000000e+02 3.1250000000000000e+02
        3.1250000000000000e+02 2.1198776219336821e+01
        3.1250000000000000e+02 3.1250000000000000e+02
        3.1250000000000000e+02 3.1250000000000000e+02
        3.1250000000000000e+02 3.1250000000000000e+02
        3.1250000000000000e+02 3.1250000000000000e+02
        3.1250000000000000e+02 3.1250000000000000e+02
        3.1250000000000000e+02 3.1250000000000000e+02
        3.1250000000000000e+02 3.1250000000000000e+02
        3.1250000000000000e+02 3.1250000000000000e+02
        3.1250000000000000e+02 3.1250000000000000e+02
        3.1250000000000000e+02 3.1250000000000000e+02
        3.1250000000000000e+02 3.1250000000000000e+02
        3.1250000000000000e+02 3.1250000000000000e+02
        3.1250000000000000e+02 3.1250000000000000e+02
        3.1250000000000000e+02 3.1250000000000000e+02
        3.1250000000000000e+02 3.1250000000000000e+02
        3.1250000000000000e+02 3.1250000000000000e+02
        3.1250000000000000e+02 3.1250000000000000e+02
        3.1250000000000000e+02 3.1250000000000000e+02
        3.1250000000000000e+02 3.1250000000000000e+02
        3.1250000000000000e+02 3.1250000000000000e+02
        3.1250000000000000e+02 3.1250000000000000e+02
        -3.1250000000000000e+02 -3.1250000000000000e+02
        -3.1250000000000000e+02 -3.1250000000000000e+02
        -3.1250000000000000e+02 -3.1250000000000000e+02
        -3.1250000000000000e+02 -3.1250000000000000e+02
        -3.1250000000000000e+02 -3.1250000000000000e+02
        -3.1250000000000000e+02 -3.1250000000000000e+02
        -3.1250000000000000e+02 -3.1250000000000000e+02
        -2.9711469729195824e+02 -3.1250000000000000e+02
        -3.1250000000000000e+02 -3.1250000000000000e+02
        -3.1250000000000000e+02 -3.1250000000000000e+02
        -3.0350588292590601e+02 -3.1250000000000000e+02
        -3.1250000000000000e+02 -3.1250000000000000e+02
        -3.1250000000000000e+02 -3.1250000000000000e+02
        -3.1250000000000000e+02 -3.1250000000000000e+02
        -3.1250000000000000e+02 -3.1250000000000000e+02
        -3.1250000000000000e+02 -3.1250000000000000e+02
        -3.1250000000000000e+02 -3.1250000000000000e+02
        -3.1250000000000000e+02 -3.1250000000000000e+02
        -3.1250000000000000e+02 -3.1250000000000000e+02
        -3.1250000000000000e+02 -3.1250000000000000e+02
        -3.1250000000000000e+02 -3.1250000000000000e+02
        -3.1250000000000000e+02 -3.1250000000000000e+02
        -3.1250000000000000e+02 -3.1250000000000000e+02
        -3.1250000000000000e+02 -3.1250000000000000e+02
        -3.1250000000000000e+02 -3.1250000000000000e+02
        -3.1250000000000000e+02 -3.1250000000000000e+02
        -3.1250000000000000e+02 -3.1250000000000000e+02
        -3.1250000000000000e+02 -3.1250000000000000e+02
        -3.1250000000000000e+02 -3.1250000000000000e+02
        -3.1250000000000000e+02 -3.1250000000000000e+02
        -3.1250000000000000e+02 -3.1250000000000000e+02
        -3.1250000000000000e+02 -3.1250000000000000e+02
        -3.1250000000000000e+02 -3.1250000000000000e+02
        -3.1250000000000000e+02 -3.1250000000000000e+02
        -3.1250000000000000e+02 -3.1250000000000000e+02
        -3.1250000000000000e+02 -3.1250000000000000e+02
        -3.1250000000000000e+02 -3.1250000000000000e+02
        -3.1250000000000000e+02 -3.1250000000000000e+02
        -3.1250000000000000e+02 -3.1250000000000000e+02
        -3.1250000000000000e+02 -3.1250000000000000e+02
        -3.1250000000000000e+02 -3.1250000000000000e+02
        -3.1250000000000000e+02 -3.1250000000000000e+02
        -3.1250000000000000e+02 -3.1250000000000000e+02
        -3.1250000000000000e+02 -3.1250000000000000e+02
        -3.1250000000000000e+02 -3.1250000000000000e+02</alpha>
      <index>
        107 108 109 110 111 112 113 114 115 116 117 118 119 121 122 123
        124 125 126 128 129 130 131 132 133 134 135 136 137 138 139 141
        142 143 144 145 146 147 148 149 150 151 152 153 154 155 156 157
        158 159 160 162 163 164 165 167 170 172 173 174 177 178 179 181
        183 185 186 187 188 189 193 194 195 196 197 198 199 200 202 203
        204 205 206 208 209 210 212 213 214 215 216 218 219 220 222 223
        224 225 226 230 231 232 238 239 241 242 243 244 245 246 248 250
        254 255 257 258 260 262 264 265 266 267 268 269 270 272 273 276
        280 281 282 283 286 287 289 290 291 292 293 296 297 298 299 301
        303 304 305 306 307 308 310 311 312 313 316 318 319 321 324 327
        329 331 334 337 339 341 344 345 347 348 349 350 351 353 354 356
        358 359 361 362 363 367</index></_></decision_functions></my_svm>
</opencv_storage>
