<?xml version="1.0"?>
<opencv_storage>
<my_svm type_id="opencv-ml-svm">
  <svm_type>C_SVC</svm_type>
  <kernel><type>RBF</type>
    <gamma>5.0625000000000009e-01</gamma></kernel>
  <C>3.1250000000000000e+02</C>
  <term_criteria><epsilon>1.1920928955078125e-07</epsilon>
    <iterations>10000</iterations></term_criteria>
  <var_all>4</var_all>
  <var_count>4</var_count>
  <class_count>2</class_count>
  <class_labels type_id="opencv-matrix">
    <rows>1</rows>
    <cols>2</cols>
    <dt>i</dt>
    <data>
      -1 1</data></class_labels>
  <sv_total>61</sv_total>
  <support_vectors>
    <_>
      4.85778660e-01 5.67438185e-01 7.36216009e-01 1.03446044e-01</_>
    <_>
      4.92583811e-01 7.32584596e-01 1.57907948e-01 3.29776555e-02</_>
    <_>
      4.92436707e-01 7.34318078e-01 1.65305063e-01 3.89921740e-02</_>
    <_>
      4.93974149e-01 7.35493481e-01 1.63023040e-01 3.41285281e-02</_>
    <_>
      4.93379116e-01 7.33451605e-01 1.62969515e-01 3.47605087e-02</_>
    <_>
      4.93070334e-01 7.32481122e-01 1.65674731e-01 3.46165188e-02</_>
    <_>
      4.92489517e-01 7.25751579e-01 1.58054560e-01 3.60402614e-02</_>
    <_>
      4.85486716e-01 6.56419456e-01 1.00151964e-01 3.20080630e-02</_>
    <_>
      4.93764549e-01 7.32777715e-01 1.62086308e-01 3.50625552e-02</_>
    <_>
      3.15360904e-01 4.75508004e-01 3.61009270e-01 6.96572810e-02</_>
    <_>
      4.94343638e-01 7.34524488e-01 1.66988105e-01 3.37168723e-02</_>
    <_>
      4.87492889e-01 6.58577800e-01 9.64949057e-02 3.28052379e-02</_>
    <_>
      4.87147987e-01 6.58287704e-01 9.97574180e-02 3.18757705e-02</_>
    <_>
      4.93708760e-01 7.32797205e-01 1.63085729e-01 3.40773910e-02</_>
    <_>
      4.94372874e-01 7.36094832e-01 1.65051386e-01 3.49860154e-02</_>
    <_>
      4.92905974e-01 7.38109946e-01 1.64290056e-01 3.59124355e-02</_>
    <_>
      4.91832525e-01 7.26365447e-01 1.67459622e-01 3.62350494e-02</_>
    <_>
      4.92680550e-01 7.30319440e-01 1.66281223e-01 3.73424441e-02</_>
    <_>
      4.93026435e-01 7.31964409e-01 1.64286062e-01 3.45904566e-02</_>
    <_>
      4.93125081e-01 7.28263319e-01 1.59470841e-01 3.49423289e-02</_>
    <_>
      4.91364032e-01 7.34073520e-01 1.68267965e-01 3.41846831e-02</_>
    <_>
      4.86732632e-01 6.58427238e-01 9.57642421e-02 3.20314392e-02</_>
    <_>
      4.82917309e-01 7.66525149e-01 1.84800714e-01 3.05984728e-02</_>
    <_>
      4.91364032e-01 7.34073520e-01 1.68267965e-01 3.41846831e-02</_>
    <_>
      3.12089503e-01 4.77369517e-01 3.48368108e-01 7.27505907e-02</_>
    <_>
      4.86528099e-01 6.57312155e-01 9.67564732e-02 3.31065208e-02</_>
    <_>
      4.94299799e-01 7.36517906e-01 1.63058072e-01 3.45757790e-02</_>
    <_>
      4.91711706e-01 7.36190915e-01 1.64237201e-01 3.71802077e-02</_>
    <_>
      4.92491543e-01 7.35449255e-01 1.64321437e-01 3.68287489e-02</_>
    <_>
      6.70518577e-01 8.82827103e-01 2.68642306e-01 3.12450938e-02</_>
    <_>
      4.05495584e-01 7.39793777e-01 2.37115547e-01 3.57656144e-02</_>
    <_>
      4.87836540e-01 5.75773835e-01 8.23965520e-02 3.78542021e-02</_>
    <_>
      4.43280339e-01 5.74646354e-01 8.65843445e-02 3.48829515e-02</_>
    <_>
      5.29407144e-01 6.23399138e-01 1.36679664e-01 3.27929519e-02</_>
    <_>
      4.91631448e-01 5.77434123e-01 8.92055258e-02 3.50500382e-02</_>
    <_>
      3.28136593e-01 7.87949562e-01 1.34108692e-01 1.95947085e-02</_>
    <_>
      5.91411352e-01 8.51141930e-01 2.77617007e-01 3.51119749e-02</_>
    <_>
      5.94559610e-01 3.33890587e-01 6.62728846e-01 1.73851594e-01</_>
    <_>
      6.35848284e-01 8.71651411e-01 2.77916998e-01 2.46908832e-02</_>
    <_>
      4.11022276e-01 7.22336113e-01 2.22943708e-01 3.72175686e-02</_>
    <_>
      4.59410787e-01 7.05954313e-01 1.33660138e-01 3.03102471e-02</_>
    <_>
      4.71104115e-01 6.47793114e-01 1.62786886e-01 3.22805755e-02</_>
    <_>
      4.62484956e-01 6.72483563e-01 1.90695524e-01 3.21988948e-02</_>
    <_>
      4.27568138e-01 7.28142619e-01 2.38897264e-01 3.66045758e-02</_>
    <_>
      5.36417782e-01 6.57327592e-01 1.68712601e-01 3.29165347e-02</_>
    <_>
      5.60852945e-01 6.97502494e-01 2.09343284e-01 4.20825519e-02</_>
    <_>
      4.01727200e-01 7.26454735e-01 2.17814773e-01 3.56159098e-02</_>
    <_>
      4.91627365e-01 5.93496442e-01 1.09579809e-01 3.56898643e-02</_>
    <_>
      4.18130726e-01 6.99540257e-01 2.12935269e-01 3.59489881e-02</_>
    <_>
      5.06294966e-01 6.16725147e-01 1.34776428e-01 3.74549367e-02</_>
    <_>
      3.90611291e-01 8.79123628e-01 2.80164331e-01 3.01341154e-02</_>
    <_>
      4.31039840e-01 6.82961345e-01 1.91308096e-01 3.70252579e-02</_>
    <_>
      5.19464195e-01 6.65557623e-01 1.73086375e-01 3.12159918e-02</_>
    <_>
      5.67334771e-01 7.12363243e-01 2.06587061e-01 3.54926102e-02</_>
    <_>
      5.66342175e-01 6.72270715e-01 1.89234972e-01 4.60087471e-02</_>
    <_>
      3.63411546e-01 8.73399198e-01 2.70649582e-01 3.04741878e-02</_>
    <_>
      4.20379043e-01 8.71029556e-01 2.66860664e-01 4.23987508e-02</_>
    <_>
      4.31627631e-01 6.68579996e-01 1.90686911e-01 3.42415981e-02</_>
    <_>
      4.52169538e-01 6.18409812e-01 1.31697834e-01 3.36965472e-02</_>
    <_>
      4.93036538e-01 7.38735855e-01 1.47197768e-01 3.63572165e-02</_>
    <_>
      4.71531004e-01 6.10200226e-01 1.13505177e-01 3.57297696e-02</_></support_vectors>
  <decision_functions>
    <_>
      <sv_count>61</sv_count>
      <rho>1.0584254497707579e+00</rho>
      <alpha>
        3.1250000000000000e+02 3.1250000000000000e+02
        3.1250000000000000e+02 3.1250000000000000e+02
        3.1250000000000000e+02 3.1250000000000000e+02
        3.1250000000000000e+02 3.1250000000000000e+02
        3.1250000000000000e+02 3.1250000000000000e+02
        3.1250000000000000e+02 1.3836691714167173e+02
        3.1250000000000000e+02 3.1250000000000000e+02
        3.1250000000000000e+02 2.5966682901396098e+02
        3.1250000000000000e+02 3.1250000000000000e+02
        3.1250000000000000e+02 3.1250000000000000e+02
        3.1250000000000000e+02 3.1250000000000000e+02
        3.1250000000000000e+02 3.1250000000000000e+02
        3.1250000000000000e+02 3.1250000000000000e+02
        3.1250000000000000e+02 3.1250000000000000e+02
        3.1250000000000000e+02 -3.1250000000000000e+02
        -3.1250000000000000e+02 -3.1250000000000000e+02
        -3.1250000000000000e+02 -3.1250000000000000e+02
        -3.0742733818382224e+01 -3.1250000000000000e+02
        -3.1250000000000000e+02 -1.1543054915918128e+02
        -9.6772581072543801e+01 -3.1250000000000000e+02
        -3.1250000000000000e+02 -3.1250000000000000e+02
        -3.1250000000000000e+02 -1.0998128594378159e+02
        -3.1250000000000000e+02 -3.1250000000000000e+02
        -3.1250000000000000e+02 -3.1250000000000000e+02
        -3.1250000000000000e+02 -3.1250000000000000e+02
        -4.5106596161740988e+01 -3.1250000000000000e+02
        -3.1250000000000000e+02 -3.1250000000000000e+02
        -3.1250000000000000e+02 -3.1250000000000000e+02
        -3.1250000000000000e+02 -3.1250000000000000e+02
        -3.1250000000000000e+02 -3.1250000000000000e+02
        -3.1250000000000000e+02</alpha>
      <index>
        0 1 2 3 4 5 6 7 8 9 10 11 12 13 14 15 16 17 18 19 20 21 22 23 24
        25 26 27 28 29 30 31 32 33 34 35 36 37 38 39 40 41 42 43 44 45
        46 47 48 49 50 51 52 53 54 55 56 57 58 59 60</index></_></decision_functions></my_svm>
</opencv_storage>
