<?xml version="1.0"?>
<opencv_storage>
<my_svm type_id="opencv-ml-svm">
  <svm_type>C_SVC</svm_type>
  <kernel><type>RBF</type>
    <gamma>5.0625000000000009e-01</gamma></kernel>
  <C>3.1250000000000000e+02</C>
  <term_criteria><epsilon>1.1920928955078125e-07</epsilon>
    <iterations>10000</iterations></term_criteria>
  <var_all>4</var_all>
  <var_count>4</var_count>
  <class_count>3</class_count>
  <class_labels type_id="opencv-matrix">
    <rows>1</rows>
    <cols>3</cols>
    <dt>i</dt>
    <data>
      1 2 3</data></class_labels>
  <sv_total>391</sv_total>
  <support_vectors>
    <_>
      4.31627631e-01 6.68579996e-01 1.90686911e-01 3.42415981e-02</_>
    <_>
      4.62484956e-01 6.72483563e-01 1.90695524e-01 3.21988948e-02</_>
    <_>
      5.56833923e-01 5.97227335e-01 1.15646571e-01 3.26668397e-02</_>
    <_>
      4.80378151e-01 5.68636954e-01 7.99329653e-02 3.60123962e-02</_>
    <_>
      4.85917419e-01 5.46526074e-01 5.98188080e-02 3.61030251e-02</_>
    <_>
      4.87722725e-01 5.27455866e-01 5.13510108e-02 3.40821967e-02</_>
    <_>
      4.80670571e-01 5.06019235e-01 4.51026931e-02 2.89530829e-02</_>
    <_>
      5.80729425e-01 5.83603024e-01 1.37061775e-01 3.10526118e-02</_>
    <_>
      5.77612102e-01 5.33069313e-01 1.06937259e-01 3.19934562e-02</_>
    <_>
      5.08440852e-01 5.00974476e-01 5.15424870e-02 3.24511789e-02</_>
    <_>
      4.90773529e-01 5.36692500e-01 5.00804819e-02 3.89365964e-02</_>
    <_>
      4.87263232e-01 5.01895547e-01 4.50568721e-02 3.12984474e-02</_>
    <_>
      5.65404296e-01 5.60255647e-01 1.02249511e-01 3.66499647e-02</_>
    <_>
      5.69678664e-01 5.98217964e-01 1.31145433e-01 2.86919437e-02</_>
    <_>
      5.67826033e-01 6.21585727e-01 1.33464843e-01 3.56570967e-02</_>
    <_>
      5.69073141e-01 5.60765028e-01 1.05197445e-01 3.24414596e-02</_>
    <_>
      4.05495584e-01 7.39793777e-01 2.37115547e-01 3.57656144e-02</_>
    <_>
      5.31502187e-01 6.10641420e-01 1.22383945e-01 2.41040494e-02</_>
    <_>
      4.66568619e-01 5.61746955e-01 8.13234001e-02 3.14317755e-02</_>
    <_>
      3.28136593e-01 7.87949562e-01 1.34108692e-01 1.95947085e-02</_>
    <_>
      5.19464195e-01 6.65557623e-01 1.73086375e-01 3.12159918e-02</_>
    <_>
      5.73115170e-01 5.78460515e-01 1.28380314e-01 3.05315331e-02</_>
    <_>
      5.76920390e-01 5.16967356e-01 9.96545926e-02 3.08497250e-02</_>
    <_>
      5.68871498e-01 5.12922049e-01 7.84607902e-02 3.58394608e-02</_>
    <_>
      4.87350881e-01 5.50003350e-01 7.36995861e-02 3.48465964e-02</_>
    <_>
      5.67334771e-01 7.12363243e-01 2.06587061e-01 3.54926102e-02</_>
    <_>
      3.90611291e-01 8.79123628e-01 2.80164331e-01 3.01341154e-02</_>
    <_>
      4.31039840e-01 6.82961345e-01 1.91308096e-01 3.70252579e-02</_>
    <_>
      4.18130726e-01 6.99540257e-01 2.12935269e-01 3.59489881e-02</_>
    <_>
      4.93262291e-01 4.97467995e-01 3.97888087e-02 3.39465253e-02</_>
    <_>
      4.86279428e-01 5.19814909e-01 4.76167202e-02 3.60298045e-02</_>
    <_>
      5.64964473e-01 4.97475713e-01 7.38962367e-02 3.55081968e-02</_>
    <_>
      4.95759040e-01 5.28859198e-01 5.43773398e-02 3.06009650e-02</_>
    <_>
      5.72049081e-01 4.96349692e-01 9.63310748e-02 2.75041815e-02</_>
    <_>
      5.72211981e-01 5.40907860e-01 9.86789688e-02 2.94861998e-02</_>
    <_>
      5.91411352e-01 8.51141930e-01 2.77617007e-01 3.51119749e-02</_>
    <_>
      4.92294133e-01 5.57582200e-01 6.79790676e-02 3.86133194e-02</_>
    <_>
      4.27568138e-01 7.28142619e-01 2.38897264e-01 3.66045758e-02</_>
    <_>
      5.01914024e-01 5.17069459e-01 4.29082438e-02 3.63754295e-02</_>
    <_>
      5.76688230e-01 5.76252639e-01 1.20071985e-01 3.33807990e-02</_>
    <_>
      4.94493544e-01 5.12064993e-01 3.85056362e-02 3.60802077e-02</_>
    <_>
      4.98991489e-01 5.37760615e-01 5.05134650e-02 3.84004228e-02</_>
    <_>
      5.09591758e-01 6.01930857e-01 1.15378119e-01 2.86873952e-02</_>
    <_>
      4.93036538e-01 7.38735855e-01 1.47197768e-01 3.63572165e-02</_>
    <_>
      6.35848284e-01 8.71651411e-01 2.77916998e-01 2.46908832e-02</_>
    <_>
      4.52169538e-01 6.18409812e-01 1.31697834e-01 3.36965472e-02</_>
    <_>
      5.08172154e-01 5.23150742e-01 5.48896417e-02 3.55844423e-02</_>
    <_>
      3.63411546e-01 8.73399198e-01 2.70649582e-01 3.04741878e-02</_>
    <_>
      8.59026134e-01 2.75916278e-01 3.52998704e-01 3.57678607e-02</_>
    <_>
      4.92642403e-01 5.58643222e-01 7.44171515e-02 3.44849192e-02</_>
    <_>
      4.97280568e-01 5.13438523e-01 4.39565256e-02 3.43552306e-02</_>
    <_>
      4.91627365e-01 5.93496442e-01 1.09579809e-01 3.56898643e-02</_>
    <_>
      5.52325189e-01 6.21144891e-01 1.41045392e-01 2.90181413e-02</_>
    <_>
      5.65180123e-01 4.91103798e-01 7.58896917e-02 3.12234778e-02</_>
    <_>
      5.86053789e-01 5.51509917e-01 1.22609206e-01 2.90794298e-02</_>
    <_>
      5.04647970e-01 5.15797079e-01 3.94655690e-02 3.46243717e-02</_>
    <_>
      5.02432883e-01 5.40807903e-01 6.68995902e-02 3.13096717e-02</_>
    <_>
      3.81785572e-01 8.74308467e-01 2.83413619e-01 2.01848634e-02</_>
    <_>
      4.11022276e-01 7.22336113e-01 2.22943708e-01 3.72175686e-02</_>
    <_>
      5.73101044e-01 5.57913661e-01 1.06608123e-01 3.25897299e-02</_>
    <_>
      5.11546373e-01 4.89860147e-01 4.41536456e-02 3.42621394e-02</_>
    <_>
      5.60852945e-01 6.97502494e-01 2.09343284e-01 4.20825519e-02</_>
    <_>
      5.29407144e-01 6.23399138e-01 1.36679664e-01 3.27929519e-02</_>
    <_>
      4.71531004e-01 6.10200226e-01 1.13505177e-01 3.57297696e-02</_>
    <_>
      4.43280339e-01 5.74646354e-01 8.65843445e-02 3.48829515e-02</_>
    <_>
      4.20379043e-01 8.71029556e-01 2.66860664e-01 4.23987508e-02</_>
    <_>
      4.90046650e-01 5.36013722e-01 5.88174872e-02 3.61741707e-02</_>
    <_>
      4.71104115e-01 6.47793114e-01 1.62786886e-01 3.22805755e-02</_>
    <_>
      5.82707763e-01 4.87863928e-01 9.96052250e-02 2.87184790e-02</_>
    <_>
      5.36417782e-01 6.57327592e-01 1.68712601e-01 3.29165347e-02</_>
    <_>
      4.99820232e-01 5.24442255e-01 4.18276191e-02 3.52057964e-02</_>
    <_>
      5.74720681e-01 5.23750842e-01 1.01165630e-01 3.03118154e-02</_>
    <_>
      4.82133210e-01 5.19886255e-01 5.70563078e-02 2.95477789e-02</_>
    <_>
      4.99843657e-01 5.19506633e-01 3.84098068e-02 3.67876813e-02</_>
    <_>
      5.68577647e-01 4.92188573e-01 7.64124766e-02 2.95481309e-02</_>
    <_>
      5.69386661e-01 5.31592131e-01 8.74477997e-02 3.02036069e-02</_>
    <_>
      4.97425437e-01 5.45008302e-01 6.35693595e-02 3.79045457e-02</_>
    <_>
      5.09257078e-01 6.07153177e-01 1.16813324e-01 2.80383863e-02</_>
    <_>
      4.81957018e-01 5.53454816e-01 6.78929985e-02 3.42031308e-02</_>
    <_>
      4.93335545e-01 5.29816210e-01 4.38738093e-02 4.09732051e-02</_>
    <_>
      5.94559610e-01 3.33890587e-01 6.62728846e-01 1.73851594e-01</_>
    <_>
      4.86084044e-01 5.70403814e-01 8.47061425e-02 3.46937813e-02</_>
    <_>
      5.66342175e-01 6.72270715e-01 1.89234972e-01 4.60087471e-02</_>
    <_>
      4.90844399e-01 5.54889858e-01 7.01564848e-02 3.27150114e-02</_>
    <_>
      4.01727200e-01 7.26454735e-01 2.17814773e-01 3.56159098e-02</_>
    <_>
      4.87836540e-01 5.75773835e-01 8.23965520e-02 3.78542021e-02</_>
    <_>
      6.97735906e-01 6.00638330e-01 2.09097132e-01 3.16557996e-02</_>
    <_>
      5.70223033e-01 5.34876645e-01 9.36976150e-02 3.25889066e-02</_>
    <_>
      4.91631448e-01 5.77434123e-01 8.92055258e-02 3.50500382e-02</_>
    <_>
      5.04235208e-01 5.22895098e-01 4.64240052e-02 3.13007198e-02</_>
    <_>
      4.89177585e-01 5.18743038e-01 4.11011837e-02 3.25614251e-02</_>
    <_>
      5.81186354e-01 5.11121035e-01 9.71971452e-02 3.12920697e-02</_>
    <_>
      6.70518577e-01 8.82827103e-01 2.68642306e-01 3.12450938e-02</_>
    <_>
      5.71798980e-01 5.05302310e-01 9.52905267e-02 3.03463880e-02</_>
    <_>
      5.68170726e-01 5.21915615e-01 8.35715532e-02 2.83056516e-02</_>
    <_>
      5.66151917e-01 4.86073852e-01 7.50200301e-02 2.99702380e-02</_>
    <_>
      5.75829387e-01 5.14382124e-01 9.65508372e-02 3.20975669e-02</_>
    <_>
      4.59410787e-01 7.05954313e-01 1.33660138e-01 3.03102471e-02</_>
    <_>
      5.06294966e-01 6.16725147e-01 1.34776428e-01 3.74549367e-02</_>
    <_>
      4.92491543e-01 7.35449255e-01 1.64321437e-01 3.68287489e-02</_>
    <_>
      4.88908589e-01 6.60567284e-01 8.24169070e-02 3.38093676e-02</_>
    <_>
      5.09514391e-01 7.50727713e-01 8.53146389e-02 2.13686582e-02</_>
    <_>
      4.89457309e-01 6.62666619e-01 7.93441907e-02 3.58977579e-02</_>
    <_>
      4.89172995e-01 6.63048327e-01 7.79180229e-02 3.62912007e-02</_>
    <_>
      4.80625480e-01 8.15498173e-01 1.66590765e-01 3.46418433e-02</_>
    <_>
      4.89977241e-01 6.63279474e-01 7.95374438e-02 3.58155742e-02</_>
    <_>
      4.86732632e-01 6.58427238e-01 9.57642421e-02 3.20314392e-02</_>
    <_>
      4.89156574e-01 6.63050950e-01 7.97650442e-02 3.49690728e-02</_>
    <_>
      4.77998286e-01 7.86739647e-01 1.37317181e-01 3.18972059e-02</_>
    <_>
      5.09830356e-01 7.50687242e-01 8.58816281e-02 2.08557528e-02</_>
    <_>
      5.10125637e-01 7.51757741e-01 8.39452222e-02 2.21797712e-02</_>
    <_>
      5.09615541e-01 7.50931084e-01 8.51178691e-02 2.07461547e-02</_>
    <_>
      4.88915086e-01 6.62100673e-01 8.03377628e-02 3.52344438e-02</_>
    <_>
      4.90434021e-01 6.63200557e-01 7.65454769e-02 3.62882614e-02</_>
    <_>
      5.10037482e-01 7.51429439e-01 8.30043331e-02 2.20215581e-02</_>
    <_>
      4.96652216e-01 7.76151955e-01 1.39421389e-01 2.77492758e-02</_>
    <_>
      5.10053098e-01 7.51908422e-01 8.43990892e-02 2.13690698e-02</_>
    <_>
      4.77891028e-01 7.88509429e-01 1.26789942e-01 3.35250124e-02</_>
    <_>
      4.91832525e-01 7.26365447e-01 1.67459622e-01 3.62350494e-02</_>
    <_>
      4.97276098e-01 7.72864580e-01 1.36430755e-01 2.84725353e-02</_>
    <_>
      4.96811301e-01 7.72115767e-01 1.32631674e-01 2.85465326e-02</_>
    <_>
      4.86910164e-01 6.58394575e-01 9.45653543e-02 3.32973376e-02</_>
    <_>
      4.85486716e-01 6.56419456e-01 1.00151964e-01 3.20080630e-02</_>
    <_>
      4.96757865e-01 7.76182711e-01 1.41980931e-01 2.79117841e-02</_>
    <_>
      4.86944616e-01 6.58657014e-01 9.49332342e-02 3.32510993e-02</_>
    <_>
      4.89288300e-01 6.63032770e-01 7.93918893e-02 3.56246941e-02</_>
    <_>
      5.10142148e-01 7.51569927e-01 8.53454173e-02 2.09121741e-02</_>
    <_>
      4.86295760e-01 7.34762728e-01 8.37914571e-02 3.26518081e-02</_>
    <_>
      5.10221601e-01 7.51401782e-01 8.41247290e-02 2.16120277e-02</_>
    <_>
      4.93026435e-01 7.31964409e-01 1.64286062e-01 3.45904566e-02</_>
    <_>
      4.90759671e-01 6.63354218e-01 7.63029680e-02 3.54794301e-02</_>
    <_>
      4.89202648e-01 6.63324654e-01 7.73622170e-02 3.62923294e-02</_>
    <_>
      4.92680550e-01 7.30319440e-01 1.66281223e-01 3.73424441e-02</_>
    <_>
      4.88941133e-01 6.62493467e-01 8.09032768e-02 3.54579128e-02</_>
    <_>
      4.90257055e-01 6.63990796e-01 7.77144060e-02 3.60568613e-02</_>
    <_>
      4.89156902e-01 6.62358284e-01 8.04667249e-02 3.55522782e-02</_>
    <_>
      4.87268597e-01 6.59778833e-01 9.08750147e-02 3.36206816e-02</_>
    <_>
      4.89857167e-01 6.63158417e-01 7.87750334e-02 3.57945077e-02</_>
    <_>
      4.88286346e-01 6.61027193e-01 7.96370059e-02 3.53130028e-02</_>
    <_>
      5.08872509e-01 7.48965681e-01 8.86517316e-02 1.93216912e-02</_>
    <_>
      4.90324020e-01 6.63725853e-01 8.10342208e-02 3.48476432e-02</_>
    <_>
      4.87147987e-01 6.58287704e-01 9.97574180e-02 3.18757705e-02</_>
    <_>
      4.95401531e-01 7.75616407e-01 1.35347068e-01 2.92069148e-02</_>
    <_>
      3.12089503e-01 4.77369517e-01 3.48368108e-01 7.27505907e-02</_>
    <_>
      4.89605129e-01 6.62912488e-01 7.90547431e-02 3.60220671e-02</_>
    <_>
      4.93125081e-01 7.28263319e-01 1.59470841e-01 3.49423289e-02</_>
    <_>
      5.09543955e-01 7.51015604e-01 8.54360312e-02 2.08231471e-02</_>
    <_>
      4.89719927e-01 6.63618922e-01 7.68119395e-02 3.61353494e-02</_>
    <_>
      5.10089576e-01 7.51955807e-01 8.23120698e-02 2.25980822e-02</_>
    <_>
      5.09781599e-01 7.51882315e-01 8.27786699e-02 2.08620001e-02</_>
    <_>
      5.09941518e-01 7.50429809e-01 8.69980603e-02 2.08391473e-02</_>
    <_>
      5.09680748e-01 7.48772383e-01 8.10089111e-02 2.15079077e-02</_>
    <_>
      4.93708760e-01 7.32797205e-01 1.63085729e-01 3.40773910e-02</_>
    <_>
      4.95734125e-01 7.75240958e-01 1.38896242e-01 2.84450445e-02</_>
    <_>
      4.93974149e-01 7.35493481e-01 1.63023040e-01 3.41285281e-02</_>
    <_>
      4.85778660e-01 5.67438185e-01 7.36216009e-01 1.03446044e-01</_>
    <_>
      4.93764549e-01 7.32777715e-01 1.62086308e-01 3.50625552e-02</_>
    <_>
      4.89968926e-01 6.61595166e-01 7.49612600e-02 3.65574211e-02</_>
    <_>
      4.89025861e-01 6.62500620e-01 8.02857429e-02 3.54313441e-02</_>
    <_>
      4.82113242e-01 7.01393902e-01 8.72388333e-02 3.07747591e-02</_>
    <_>
      5.09736300e-01 7.51521409e-01 8.52565467e-02 1.76510140e-02</_>
    <_>
      4.88422751e-01 7.39399195e-01 7.31472895e-02 3.34354267e-02</_>
    <_>
      4.92436707e-01 7.34318078e-01 1.65305063e-01 3.89921740e-02</_>
    <_>
      4.89914954e-01 6.62139535e-01 7.73456097e-02 3.63599546e-02</_>
    <_>
      5.09622335e-01 7.50203729e-01 8.54793340e-02 2.01206785e-02</_>
    <_>
      4.96983379e-01 7.73067772e-01 1.33232057e-01 2.83685718e-02</_>
    <_>
      4.78505254e-01 7.86702991e-01 1.32032380e-01 3.18903103e-02</_>
    <_>
      4.91364032e-01 7.34073520e-01 1.68267965e-01 3.41846831e-02</_>
    <_>
      4.89741802e-01 6.63356483e-01 7.92697594e-02 3.58867757e-02</_>
    <_>
      4.88754869e-01 6.62125230e-01 8.02464187e-02 3.53141837e-02</_>
    <_>
      4.91711706e-01 7.36190915e-01 1.64237201e-01 3.71802077e-02</_>
    <_>
      4.94343638e-01 7.34524488e-01 1.66988105e-01 3.37168723e-02</_>
    <_>
      4.94299799e-01 7.36517906e-01 1.63058072e-01 3.45757790e-02</_>
    <_>
      4.96027052e-01 7.72888124e-01 1.47776991e-01 2.71900780e-02</_>
    <_>
      4.88339752e-01 6.60948217e-01 7.92077407e-02 3.53728309e-02</_>
    <_>
      4.96676475e-01 7.76399791e-01 1.43646717e-01 2.74535660e-02</_>
    <_>
      4.89657193e-01 6.61520958e-01 7.86717832e-02 3.59719917e-02</_>
    <_>
      4.88904834e-01 6.62936509e-01 8.14584866e-02 3.54104862e-02</_>
    <_>
      4.95396495e-01 7.72262692e-01 1.40188172e-01 2.80584954e-02</_>
    <_>
      4.96781975e-01 7.74988174e-01 1.35563880e-01 2.78538074e-02</_>
    <_>
      4.94372874e-01 7.36094832e-01 1.65051386e-01 3.49860154e-02</_>
    <_>
      4.96253014e-01 7.71560133e-01 1.39939591e-01 2.79129874e-02</_>
    <_>
      4.89862591e-01 6.64102018e-01 7.90058225e-02 3.57301049e-02</_>
    <_>
      4.95394140e-01 7.78177321e-01 1.36968032e-01 2.93980464e-02</_>
    <_>
      4.93070334e-01 7.32481122e-01 1.65674731e-01 3.46165188e-02</_>
    <_>
      4.95795041e-01 7.74870276e-01 1.40588343e-01 2.79593989e-02</_>
    <_>
      4.89292562e-01 6.63183808e-01 7.80536979e-02 3.62414606e-02</_>
    <_>
      4.77172583e-01 7.88938582e-01 1.27194554e-01 3.35138515e-02</_>
    <_>
      5.10036111e-01 7.48137772e-01 7.51229376e-02 2.14538015e-02</_>
    <_>
      4.87520695e-01 7.41644502e-01 7.63938203e-02 3.19544189e-02</_>
    <_>
      4.87008393e-01 6.58908129e-01 9.43768173e-02 3.29611972e-02</_>
    <_>
      5.09539604e-01 7.51471102e-01 8.36336091e-02 2.11008750e-02</_>
    <_>
      4.88339752e-01 6.60948217e-01 7.92077407e-02 3.53728309e-02</_>
    <_>
      4.78304565e-01 7.87920713e-01 1.35786936e-01 3.14752869e-02</_>
    <_>
      4.86528099e-01 6.57312155e-01 9.67564732e-02 3.31065208e-02</_>
    <_>
      4.87560481e-01 6.59521043e-01 9.22666565e-02 3.36323418e-02</_>
    <_>
      5.11204898e-01 7.51132607e-01 8.15149099e-02 1.96831338e-02</_>
    <_>
      4.88172740e-01 6.60766840e-01 8.91972408e-02 3.41641419e-02</_>
    <_>
      4.80259895e-01 8.12403619e-01 1.65094271e-01 3.36850956e-02</_>
    <_>
      5.09491980e-01 7.51560867e-01 8.56528357e-02 2.05359887e-02</_>
    <_>
      5.09513915e-01 7.50437737e-01 8.52349997e-02 2.08331719e-02</_>
    <_>
      4.92905974e-01 7.38109946e-01 1.64290056e-01 3.59124355e-02</_>
    <_>
      4.89667267e-01 6.62935853e-01 7.93330595e-02 3.53085771e-02</_>
    <_>
      5.04291534e-01 7.98480213e-01 9.86050442e-02 2.20161099e-02</_>
    <_>
      4.89877224e-01 6.62941992e-01 7.91046992e-02 3.55739221e-02</_>
    <_>
      4.87544477e-01 6.58959031e-01 9.15872082e-02 3.30047943e-02</_>
    <_>
      5.10220945e-01 7.50086904e-01 8.76422375e-02 2.08605211e-02</_>
    <_>
      4.89365131e-01 6.62659645e-01 8.00609291e-02 3.58038358e-02</_>
    <_>
      4.89610553e-01 6.64144397e-01 7.75650442e-02 3.60763259e-02</_>
    <_>
      4.87051010e-01 6.58522785e-01 9.39945504e-02 3.32049355e-02</_>
    <_>
      4.87965524e-01 6.60114050e-01 8.42941031e-02 3.52314562e-02</_>
    <_>
      4.89588946e-01 6.63740039e-01 7.84995630e-02 3.56098413e-02</_>
    <_>
      5.09388030e-01 7.50769436e-01 8.62974823e-02 2.04924326e-02</_>
    <_>
      4.95545059e-01 7.75819600e-01 1.34835258e-01 2.84573305e-02</_>
    <_>
      4.87492889e-01 6.58577800e-01 9.64949057e-02 3.28052379e-02</_>
    <_>
      4.87120211e-01 6.59055412e-01 9.45300832e-02 3.28207090e-02</_>
    <_>
      4.93379116e-01 7.33451605e-01 1.62969515e-01 3.47605087e-02</_>
    <_>
      4.89226609e-01 6.63949907e-01 7.88374990e-02 3.59051377e-02</_>
    <_>
      3.15360904e-01 4.75508004e-01 3.61009270e-01 6.96572810e-02</_>
    <_>
      4.89054292e-01 6.62453949e-01 7.91099742e-02 3.59595641e-02</_>
    <_>
      4.91364032e-01 7.34073520e-01 1.68267965e-01 3.41846831e-02</_>
    <_>
      4.92583811e-01 7.32584596e-01 1.57907948e-01 3.29776555e-02</_>
    <_>
      4.82917309e-01 7.66525149e-01 1.84800714e-01 3.05984728e-02</_>
    <_>
      4.88908589e-01 6.60567284e-01 8.24169070e-02 3.38093676e-02</_>
    <_>
      4.96734977e-01 7.72318661e-01 1.37046948e-01 2.82115843e-02</_>
    <_>
      5.07925332e-01 7.55745292e-01 8.88008997e-02 1.66856833e-02</_>
    <_>
      5.10255218e-01 7.51912475e-01 8.51457044e-02 2.20511016e-02</_>
    <_>
      5.10947406e-01 7.51008868e-01 8.12800676e-02 2.10787188e-02</_>
    <_>
      4.92489517e-01 7.25751579e-01 1.58054560e-01 3.60402614e-02</_>
    <_>
      4.89620894e-01 6.60692036e-01 7.90500566e-02 3.57543342e-02</_>
    <_>
      5.10000050e-01 7.51258671e-01 8.24135467e-02 2.24116538e-02</_>
    <_>
      5.96647620e-01 8.12778413e-01 1.57811239e-01 2.39608325e-02</_>
    <_>
      5.98907650e-01 7.70179868e-01 1.08223625e-01 2.31467597e-02</_>
    <_>
      4.73922580e-01 6.13772392e-01 7.28760660e-02 2.78159380e-02</_>
    <_>
      3.83389741e-01 6.89414203e-01 1.26118034e-01 2.79344134e-02</_>
    <_>
      4.33985412e-01 6.76395535e-01 1.10019237e-01 2.83216294e-02</_>
    <_>
      5.33705592e-01 6.13945365e-01 6.49063289e-02 2.68785544e-02</_>
    <_>
      5.70209563e-01 7.99585283e-01 5.01330756e-02 2.95040514e-02</_>
    <_>
      6.43422306e-01 4.96861190e-01 1.08231500e-01 2.66136825e-02</_>
    <_>
      5.50303876e-01 5.16096354e-01 5.75752035e-02 2.58810781e-02</_>
    <_>
      5.32606900e-01 6.12445831e-01 6.18046299e-02 2.87331473e-02</_>
    <_>
      5.90454042e-01 8.01741362e-01 1.58856541e-01 2.15721931e-02</_>
    <_>
      5.99342287e-01 7.91431129e-01 1.84349239e-01 2.34820321e-02</_>
    <_>
      5.87764978e-01 8.10214460e-01 1.39808089e-01 2.45980155e-02</_>
    <_>
      5.60647726e-01 7.76549757e-01 4.83380668e-02 2.81177796e-02</_>
    <_>
      4.64160830e-01 8.33369493e-01 8.00621808e-02 2.94456966e-02</_>
    <_>
      4.47311282e-01 6.25395417e-01 7.84678161e-02 2.79675052e-02</_>
    <_>
      4.47283179e-01 7.02614963e-01 9.49574038e-02 2.93172728e-02</_>
    <_>
      5.39103568e-01 6.39567435e-01 7.89450407e-02 2.85380501e-02</_>
    <_>
      4.81259555e-01 8.31263244e-01 1.15515321e-01 2.30943821e-02</_>
    <_>
      5.59437454e-01 7.39974022e-01 4.87109162e-02 2.79621370e-02</_>
    <_>
      4.36228603e-01 6.79703176e-01 1.13109797e-01 2.92083584e-02</_>
    <_>
      4.56620842e-01 8.08249652e-01 1.12359077e-01 2.40432899e-02</_>
    <_>
      5.36021471e-01 6.29419923e-01 7.09826201e-02 2.89206095e-02</_>
    <_>
      4.41887796e-01 6.33427262e-01 8.89011547e-02 2.80994661e-02</_>
    <_>
      5.35512745e-01 6.25786543e-01 7.30139464e-02 2.89795268e-02</_>
    <_>
      5.58208346e-01 5.14428735e-01 6.28540218e-02 2.46347394e-02</_>
    <_>
      3.75273764e-01 7.83495963e-01 1.67981431e-01 2.85383891e-02</_>
    <_>
      4.56053436e-01 8.26505303e-01 6.66398257e-02 5.56111671e-02</_>
    <_>
      5.67964673e-01 7.93823063e-01 4.77786735e-02 2.87707187e-02</_>
    <_>
      4.43202525e-01 6.80703342e-01 1.24120325e-01 2.99084503e-02</_>
    <_>
      3.93897414e-01 6.32027090e-01 1.17346369e-01 2.76660919e-02</_>
    <_>
      4.37965333e-01 6.60266697e-01 1.11186706e-01 2.68978141e-02</_>
    <_>
      3.92708033e-01 6.43112719e-01 1.22634009e-01 2.90019605e-02</_>
    <_>
      5.95569074e-01 8.06265533e-01 1.61299974e-01 2.39801817e-02</_>
    <_>
      5.61878741e-01 7.64285743e-01 4.54209670e-02 2.89562810e-02</_>
    <_>
      3.94364327e-01 6.25777602e-01 1.06841974e-01 2.84273867e-02</_>
    <_>
      4.28904235e-01 6.42594695e-01 1.03254773e-01 2.73169000e-02</_>
    <_>
      4.43023801e-01 6.73110604e-01 1.14070743e-01 2.95572653e-02</_>
    <_>
      4.29479867e-01 6.42633736e-01 1.11690372e-01 2.55918391e-02</_>
    <_>
      6.53486907e-01 4.65698898e-01 1.06117174e-01 3.05158719e-02</_>
    <_>
      6.51648283e-01 4.56186354e-01 1.10800356e-01 2.67493650e-02</_>
    <_>
      4.42433864e-01 7.91083336e-01 1.04930602e-01 2.85016615e-02</_>
    <_>
      6.48156762e-01 4.66752619e-01 1.10436052e-01 2.76416428e-02</_>
    <_>
      4.35276300e-01 6.48545504e-01 1.04245923e-01 2.79845390e-02</_>
    <_>
      4.47986990e-01 8.24440837e-01 7.52630532e-02 5.97751588e-02</_>
    <_>
      4.36715186e-01 6.37491882e-01 7.90055692e-02 2.94482391e-02</_>
    <_>
      4.94873613e-01 6.08423591e-01 8.80421922e-02 2.41018031e-02</_>
    <_>
      5.41611373e-01 6.18339777e-01 8.80067423e-02 2.56274398e-02</_>
    <_>
      6.03854358e-01 7.91027367e-01 1.76550090e-01 2.23314073e-02</_>
    <_>
      6.43298209e-01 4.97120738e-01 1.08404487e-01 2.73800101e-02</_>
    <_>
      5.43572962e-01 6.04462445e-01 8.72893706e-02 2.47537289e-02</_>
    <_>
      5.38759470e-01 6.36397719e-01 1.07406341e-01 2.53245458e-02</_>
    <_>
      5.50934911e-01 5.22171676e-01 5.39354831e-02 2.56717820e-02</_>
    <_>
      5.52651465e-01 5.06059825e-01 5.48386797e-02 2.52627172e-02</_>
    <_>
      4.45805579e-01 8.21040332e-01 1.17508173e-01 2.51616295e-02</_>
    <_>
      3.95861208e-01 6.48354530e-01 1.15857735e-01 2.85176318e-02</_>
    <_>
      6.53212368e-01 4.48517889e-01 1.05272263e-01 2.97049116e-02</_>
    <_>
      4.48423982e-01 8.11909378e-01 9.77055058e-02 2.54242197e-02</_>
    <_>
      5.54127395e-01 7.02322304e-01 8.58079121e-02 2.83722151e-02</_>
    <_>
      6.49310648e-01 4.96694267e-01 1.11891627e-01 2.62643453e-02</_>
    <_>
      4.79632527e-01 6.12656236e-01 7.26426765e-02 2.66578626e-02</_>
    <_>
      4.74231333e-01 8.58659387e-01 1.62944376e-01 2.89036427e-02</_>
    <_>
      4.84234720e-01 6.12312853e-01 7.50134662e-02 2.61828378e-02</_>
    <_>
      3.94351482e-01 6.26272202e-01 1.05549954e-01 2.86441036e-02</_>
    <_>
      3.69843304e-01 7.84807026e-01 2.03389212e-01 2.74471920e-02</_>
    <_>
      5.63187540e-01 7.71199226e-01 7.29780868e-02 2.44773142e-02</_>
    <_>
      5.51542997e-01 5.11590898e-01 5.80959842e-02 2.49363296e-02</_>
    <_>
      4.28273290e-01 6.42954826e-01 1.01892106e-01 2.64195260e-02</_>
    <_>
      5.59247971e-01 7.75727332e-01 4.56849486e-02 3.03558446e-02</_>
    <_>
      4.85606253e-01 5.27464986e-01 4.63268608e-02 3.01488359e-02</_>
    <_>
      4.87110704e-01 5.45916677e-01 4.55368012e-02 2.68248301e-02</_>
    <_>
      5.59825301e-01 7.77617335e-01 4.83519100e-02 3.02057043e-02</_>
    <_>
      5.99434197e-01 8.05380404e-01 1.65959314e-01 2.37466767e-02</_>
    <_>
      6.51411772e-01 4.61804301e-01 9.92122144e-02 2.97444370e-02</_>
    <_>
      5.60354531e-01 7.45650232e-01 4.58273217e-02 2.80214678e-02</_>
    <_>
      4.82653409e-01 5.47150075e-01 5.79799376e-02 2.80491635e-02</_>
    <_>
      4.83475655e-01 5.39313853e-01 5.40715903e-02 2.83570904e-02</_>
    <_>
      4.45245236e-01 7.03982472e-01 1.04983836e-01 2.71444134e-02</_>
    <_>
      5.44970095e-01 6.01335108e-01 8.01476240e-02 2.68227626e-02</_>
    <_>
      4.44276661e-01 6.96624696e-01 9.92969722e-02 2.67781820e-02</_>
    <_>
      5.33562064e-01 6.16924107e-01 6.83814287e-02 2.75184810e-02</_>
    <_>
      4.33571607e-01 6.50316417e-01 9.96478871e-02 3.08311712e-02</_>
    <_>
      4.48065549e-01 6.94976389e-01 1.16090812e-01 2.85758153e-02</_>
    <_>
      5.62210619e-01 7.83867002e-01 4.98532243e-02 3.03994119e-02</_>
    <_>
      4.46342587e-01 6.81304157e-01 1.23037785e-01 2.65976880e-02</_>
    <_>
      6.05605423e-01 7.97176659e-01 1.73667803e-01 2.81848069e-02</_>
    <_>
      5.61264992e-01 4.78543162e-01 5.84514365e-02 2.74779256e-02</_>
    <_>
      5.61147034e-01 7.52635717e-01 4.62300144e-02 2.86661386e-02</_>
    <_>
      4.60728616e-01 8.30432057e-01 7.19214156e-02 3.02051920e-02</_>
    <_>
      3.73921305e-01 7.69217670e-01 1.78342402e-01 2.58983653e-02</_>
    <_>
      6.50565028e-01 4.90377754e-01 1.08022980e-01 2.86332667e-02</_>
    <_>
      5.42042494e-01 6.10416234e-01 8.90304074e-02 2.50533242e-02</_>
    <_>
      4.87758845e-01 8.34966838e-01 6.10908270e-02 3.07150595e-02</_>
    <_>
      4.39653903e-01 6.99851930e-01 9.46091115e-02 2.62220763e-02</_>
    <_>
      4.31324542e-01 6.52150154e-01 1.00306325e-01 3.02934851e-02</_>
    <_>
      6.47454262e-01 4.70782787e-01 1.08901948e-01 2.74409298e-02</_>
    <_>
      4.35284764e-01 6.55663490e-01 1.09868422e-01 2.77716722e-02</_>
    <_>
      6.04269803e-01 8.10301185e-01 1.55123293e-01 2.48866435e-02</_>
    <_>
      4.30690169e-01 6.59467816e-01 1.09857783e-01 2.89653949e-02</_>
    <_>
      6.46001041e-01 4.78275031e-01 1.05095185e-01 2.69372500e-02</_>
    <_>
      6.44660413e-01 4.89314169e-01 1.02254815e-01 2.91405674e-02</_>
    <_>
      4.65211332e-01 8.31430614e-01 7.20812008e-02 2.99983583e-02</_>
    <_>
      6.40906274e-01 5.07246375e-01 1.13491312e-01 2.62331795e-02</_>
    <_>
      6.50147021e-01 5.01063287e-01 1.08928449e-01 2.89608594e-02</_>
    <_>
      4.88170415e-01 5.40321887e-01 4.27028202e-02 2.96321865e-02</_>
    <_>
      4.85845149e-01 5.21893680e-01 4.38866951e-02 3.06164715e-02</_>
    <_>
      4.85606253e-01 5.27464986e-01 4.63268608e-02 3.01488359e-02</_>
    <_>
      4.84411120e-01 5.33893764e-01 4.76772636e-02 3.05338092e-02</_>
    <_>
      6.44241154e-01 4.93854910e-01 1.08539589e-01 2.59836577e-02</_>
    <_>
      4.77651715e-01 5.63515306e-01 6.56364039e-02 2.63392664e-02</_>
    <_>
      4.80460823e-01 5.58185697e-01 5.65530695e-02 2.97067687e-02</_>
    <_>
      3.95887226e-01 6.35808110e-01 1.14724174e-01 2.89901998e-02</_>
    <_>
      3.94254655e-01 6.45488918e-01 1.13170348e-01 2.90159956e-02</_>
    <_>
      3.83119792e-01 6.81911170e-01 1.31324500e-01 2.89768782e-02</_>
    <_>
      3.70655745e-01 7.90073216e-01 1.89664155e-01 2.77622230e-02</_>
    <_>
      5.61057806e-01 7.58384526e-01 4.55101356e-02 2.94026155e-02</_>
    <_>
      3.70959729e-01 7.86776185e-01 1.91530392e-01 2.74133682e-02</_>
    <_>
      5.59932768e-01 7.94846654e-01 4.36367951e-02 2.92998124e-02</_>
    <_>
      4.85989779e-01 5.53424597e-01 4.62832302e-02 2.76175365e-02</_>
    <_>
      4.38842267e-01 6.83802783e-01 1.17844082e-01 2.83137001e-02</_>
    <_>
      4.31852013e-01 6.70932591e-01 1.16884582e-01 2.64055114e-02</_>
    <_>
      4.34612960e-01 6.47360384e-01 8.92029479e-02 3.16594355e-02</_>
    <_>
      4.35257316e-01 6.45053685e-01 8.86635929e-02 3.01542524e-02</_>
    <_>
      4.72952217e-01 6.17886782e-01 7.15667978e-02 2.49931160e-02</_>
    <_>
      5.57593167e-01 7.24318087e-01 3.98132913e-02 2.85686087e-02</_>
    <_>
      4.90173131e-01 6.12232745e-01 7.58836344e-02 2.55394075e-02</_>
    <_>
      4.40210193e-01 6.89598858e-01 1.19290106e-01 2.70239338e-02</_>
    <_>
      5.62247813e-01 4.76970226e-01 6.05922863e-02 2.97004879e-02</_>
    <_>
      5.62561691e-01 4.77962822e-01 5.97490706e-02 2.79389154e-02</_>
    <_>
      5.54484308e-01 4.99698222e-01 5.67499660e-02 2.55003534e-02</_>
    <_>
      4.37124580e-01 6.38391376e-01 8.10098499e-02 3.01976167e-02</_>
    <_>
      5.37741542e-01 6.35353088e-01 1.06015995e-01 2.46268865e-02</_>
    <_>
      4.74016130e-01 5.65225184e-01 5.98620698e-02 2.82715820e-02</_>
    <_>
      6.51090264e-01 4.84700590e-01 1.04838930e-01 3.01238727e-02</_>
    <_>
      6.00336492e-01 8.13795388e-01 1.46866336e-01 2.80825868e-02</_>
    <_>
      5.60029209e-01 4.78880018e-01 5.76533340e-02 2.60559302e-02</_>
    <_>
      5.34704030e-01 6.21636569e-01 6.88397735e-02 2.70556100e-02</_>
    <_>
      6.50670648e-01 4.78039205e-01 1.07555985e-01 2.82850657e-02</_>
    <_>
      6.03884280e-01 8.07109594e-01 1.57619983e-01 2.49511953e-02</_>
    <_>
      6.41863644e-01 5.00729382e-01 1.09018363e-01 2.77983285e-02</_>
    <_>
      5.61530948e-01 7.71900177e-01 5.21608554e-02 2.78662257e-02</_>
    <_>
      5.53359807e-01 4.99783605e-01 5.57806492e-02 2.50543263e-02</_>
    <_>
      4.41502005e-01 7.03497827e-01 1.05812378e-01 2.61693597e-02</_>
    <_>
      6.39184296e-01 5.24136484e-01 1.10531650e-01 2.69303359e-02</_>
    <_>
      6.45492136e-01 4.83116627e-01 1.08563110e-01 2.63886284e-02</_>
    <_>
      5.61071217e-01 4.76936013e-01 5.86478896e-02 2.88158040e-02</_>
    <_>
      3.85506183e-01 6.92145288e-01 1.20891593e-01 3.22440267e-02</_>
    <_>
      4.34909374e-01 6.47463024e-01 1.08760327e-01 2.59469878e-02</_>
    <_>
      4.34605122e-01 6.52273953e-01 1.07387744e-01 2.54310109e-02</_>
    <_>
      4.71019536e-01 6.15825593e-01 7.21071213e-02 2.57596616e-02</_>
    <_>
      5.39046645e-01 6.28908455e-01 1.01592250e-01 2.52958294e-02</_>
    <_>
      5.59835672e-01 7.87948072e-01 3.82810310e-02 3.12437657e-02</_>
    <_>
      3.89580280e-01 6.28332376e-01 8.88167471e-02 2.90537756e-02</_>
    <_>
      6.49472535e-01 4.92704004e-01 1.07854560e-01 2.74040084e-02</_>
    <_>
      5.64503551e-01 7.89059281e-01 5.27592897e-02 2.89589372e-02</_>
    <_>
      6.53204501e-01 4.49804842e-01 1.06531017e-01 2.90192720e-02</_>
    <_>
      5.37482679e-01 6.37445450e-01 8.80375579e-02 2.88838912e-02</_>
    <_>
      5.91086626e-01 8.12042117e-01 1.53773203e-01 2.41233334e-02</_>
    <_>
      5.34357667e-01 6.12585247e-01 6.99942186e-02 2.63510682e-02</_>
    <_>
      4.31567788e-01 6.53480530e-01 1.01246253e-01 3.06508727e-02</_></support_vectors>
  <decision_functions>
    <_>
      <sv_count>61</sv_count>
      <rho>-1.0583990910089274e+00</rho>
      <alpha>
        3.1250000000000000e+02 3.1250000000000000e+02
        3.1250000000000000e+02 3.1250000000000000e+02
        3.1250000000000000e+02 3.1250000000000000e+02
        4.5107617430293423e+01 3.1250000000000000e+02
        3.1250000000000000e+02 3.1250000000000000e+02
        1.0997651747281409e+02 3.1250000000000000e+02
        9.6770728748916298e+01 3.1250000000000000e+02
        3.1250000000000000e+02 3.1250000000000000e+02
        3.1250000000000000e+02 3.1250000000000000e+02
        3.1250000000000000e+02 3.1250000000000000e+02
        3.1250000000000000e+02 3.1250000000000000e+02
        3.1250000000000000e+02 3.1250000000000000e+02
        1.1543050419935328e+02 3.1250000000000000e+02
        3.1250000000000000e+02 3.1250000000000000e+02
        3.0749923721179563e+01 3.1250000000000000e+02
        3.1250000000000000e+02 3.1250000000000000e+02
        -3.1250000000000000e+02 -3.1250000000000000e+02
        -3.1250000000000000e+02 -3.1250000000000000e+02
        -3.1250000000000000e+02 -3.1250000000000000e+02
        -3.1250000000000000e+02 -3.1250000000000000e+02
        -3.1250000000000000e+02 -3.1250000000000000e+02
        -3.1250000000000000e+02 -3.1250000000000000e+02
        -3.1250000000000000e+02 -3.1250000000000000e+02
        -3.1250000000000000e+02 -3.1250000000000000e+02
        -3.1250000000000000e+02 -3.1250000000000000e+02
        -3.1250000000000000e+02 -3.1250000000000000e+02
        -3.1250000000000000e+02 -2.5965353976596032e+02
        -1.3838175180659553e+02 -3.1250000000000000e+02
        -3.1250000000000000e+02 -3.1250000000000000e+02
        -3.1250000000000000e+02 -3.1250000000000000e+02
        -3.1250000000000000e+02</alpha>
      <index>
        0 1 16 19 20 25 26 27 28 35 37 43 44 45 47 51 58 61 62 63 64 65
        67 69 80 82 84 85 88 92 97 98 99 106 118 122 129 132 141 143 145
        152 154 155 156 162 167 170 171 172 180 184 194 201 214 216 218
        220 221 222 228</index></_>
    <_>
      <sv_count>146</sv_count>
      <rho>1.5448606800720240e+01</rho>
      <alpha>
        3.1250000000000000e+02 3.1250000000000000e+02
        3.1250000000000000e+02 3.1250000000000000e+02
        3.1250000000000000e+02 3.1250000000000000e+02
        3.1250000000000000e+02 3.1250000000000000e+02
        3.1250000000000000e+02 3.1250000000000000e+02
        3.1250000000000000e+02 3.1250000000000000e+02
        3.1250000000000000e+02 3.1250000000000000e+02
        3.1250000000000000e+02 3.1250000000000000e+02
        3.1250000000000000e+02 3.1250000000000000e+02
        3.1250000000000000e+02 3.1250000000000000e+02
        3.1250000000000000e+02 6.9573830421669882e+01
        3.1250000000000000e+02 3.1250000000000000e+02
        3.1250000000000000e+02 3.1250000000000000e+02
        3.1250000000000000e+02 3.1250000000000000e+02
        3.1250000000000000e+02 3.1250000000000000e+02
        3.1250000000000000e+02 3.1250000000000000e+02
        3.1250000000000000e+02 3.1250000000000000e+02
        3.1250000000000000e+02 3.1250000000000000e+02
        3.1250000000000000e+02 3.1250000000000000e+02
        3.1250000000000000e+02 3.1250000000000000e+02
        3.1250000000000000e+02 3.1250000000000000e+02
        3.1250000000000000e+02 3.1250000000000000e+02
        3.1250000000000000e+02 3.1250000000000000e+02
        3.1250000000000000e+02 5.2665592753651438e+01
        3.1250000000000000e+02 3.1250000000000000e+02
        3.1250000000000000e+02 3.1250000000000000e+02
        3.1250000000000000e+02 3.1250000000000000e+02
        3.1250000000000000e+02 3.1250000000000000e+02
        3.1250000000000000e+02 3.1250000000000000e+02
        3.1250000000000000e+02 2.9359383205699652e+02
        3.1250000000000000e+02 3.1250000000000000e+02
        1.4153067720708023e+02 1.3406032410516508e+02
        3.1250000000000000e+02 3.1250000000000000e+02
        3.1250000000000000e+02 3.1250000000000000e+02
        3.1250000000000000e+02 3.1250000000000000e+02
        3.1250000000000000e+02 3.1250000000000000e+02
        3.1250000000000000e+02 3.1250000000000000e+02
        -3.1250000000000000e+02 -3.1250000000000000e+02
        -2.2075596748120972e+02 -3.1250000000000000e+02
        -3.1250000000000000e+02 -3.1250000000000000e+02
        -3.1250000000000000e+02 -3.1250000000000000e+02
        -3.1250000000000000e+02 -3.1250000000000000e+02
        -3.1250000000000000e+02 -3.1250000000000000e+02
        -3.1250000000000000e+02 -3.1250000000000000e+02
        -3.1250000000000000e+02 -3.1250000000000000e+02
        -3.1250000000000000e+02 -3.0935856801084526e+02
        -3.1250000000000000e+02 -3.1250000000000000e+02
        -3.1250000000000000e+02 -3.1250000000000000e+02
        -3.1250000000000000e+02 -3.1250000000000000e+02
        -3.1250000000000000e+02 -3.1250000000000000e+02
        -3.1250000000000000e+02 -3.1250000000000000e+02
        -3.1250000000000000e+02 -3.1250000000000000e+02
        -3.1250000000000000e+02 -3.1250000000000000e+02
        -3.1250000000000000e+02 -3.1250000000000000e+02
        -3.1250000000000000e+02 -3.1250000000000000e+02
        -3.1250000000000000e+02 -3.1250000000000000e+02
        -3.1250000000000000e+02 -3.1250000000000000e+02
        -3.1250000000000000e+02 -3.1250000000000000e+02
        -3.1250000000000000e+02 -3.1250000000000000e+02
        -3.1250000000000000e+02 -3.1250000000000000e+02
        -3.1250000000000000e+02 -3.1250000000000000e+02
        -3.1250000000000000e+02 -3.1250000000000000e+02
        -3.1250000000000000e+02 -3.1250000000000000e+02
        -3.1250000000000000e+02 -3.1250000000000000e+02
        -3.1250000000000000e+02 -3.1250000000000000e+02
        -3.1250000000000000e+02 -3.1250000000000000e+02
        -3.1250000000000000e+02 -3.1250000000000000e+02
        -3.1250000000000000e+02 -3.1250000000000000e+02
        -3.1250000000000000e+02 -3.1250000000000000e+02
        -1.6130972105250734e+02 -3.1250000000000000e+02
        -3.1250000000000000e+02 -3.1250000000000000e+02
        -3.1250000000000000e+02 -3.1250000000000000e+02
        -3.1250000000000000e+02 -3.1250000000000000e+02</alpha>
      <index>
        2 3 4 5 6 7 8 9 10 11 12 13 14 15 17 18 19 21 22 23 24 26 29 30
        31 32 33 34 36 38 39 40 41 42 43 46 47 48 49 50 52 53 54 55 56
        57 59 60 66 68 70 71 72 73 74 75 76 77 78 79 81 83 85 86 87 88
        89 90 91 93 94 95 96 97 238 239 242 254 256 260 261 262 263 266
        267 268 269 270 271 273 274 277 280 283 284 286 287 290 294 297
        298 300 301 304 306 307 312 317 321 325 326 327 329 330 331 333
        334 335 336 337 338 339 340 341 342 343 344 349 352 358 359 360
        363 364 366 368 370 372 374 375 376 378 383 384 386 390</index></_>
    <_>
      <sv_count>220</sv_count>
      <rho>9.8021901727813955e+01</rho>
      <alpha>
        3.1250000000000000e+02 3.1250000000000000e+02
        3.1250000000000000e+02 3.1250000000000000e+02
        3.1151726075639374e+02 3.1250000000000000e+02
        3.1250000000000000e+02 3.1250000000000000e+02
        3.1250000000000000e+02 3.1250000000000000e+02
        3.1250000000000000e+02 3.1250000000000000e+02
        3.1250000000000000e+02 3.1250000000000000e+02
        3.1250000000000000e+02 3.1250000000000000e+02
        3.1250000000000000e+02 3.1250000000000000e+02
        3.1250000000000000e+02 3.1250000000000000e+02
        3.1250000000000000e+02 3.1250000000000000e+02
        3.1250000000000000e+02 3.1250000000000000e+02
        3.1250000000000000e+02 3.1250000000000000e+02
        3.1250000000000000e+02 3.1250000000000000e+02
        3.1250000000000000e+02 3.1250000000000000e+02
        3.1250000000000000e+02 3.1250000000000000e+02
        3.1250000000000000e+02 3.1250000000000000e+02
        3.1250000000000000e+02 3.1250000000000000e+02
        3.1250000000000000e+02 3.1250000000000000e+02
        3.1250000000000000e+02 3.1250000000000000e+02
        3.1250000000000000e+02 4.4668494592174731e+01
        3.1250000000000000e+02 3.1250000000000000e+02
        3.1250000000000000e+02 3.1250000000000000e+02
        3.1250000000000000e+02 3.1250000000000000e+02
        3.1250000000000000e+02 1.3260802086302593e+01
        3.1250000000000000e+02 3.1250000000000000e+02
        3.1250000000000000e+02 3.1250000000000000e+02
        3.1250000000000000e+02 3.1250000000000000e+02
        3.1250000000000000e+02 3.1250000000000000e+02
        3.1250000000000000e+02 3.1250000000000000e+02
        3.1250000000000000e+02 3.1250000000000000e+02
        3.1250000000000000e+02 3.1250000000000000e+02
        3.1250000000000000e+02 3.1250000000000000e+02
        3.1250000000000000e+02 3.1250000000000000e+02
        3.1250000000000000e+02 3.1250000000000000e+02
        3.1250000000000000e+02 3.1250000000000000e+02
        3.1250000000000000e+02 3.1250000000000000e+02
        3.1250000000000000e+02 3.1250000000000000e+02
        3.1250000000000000e+02 3.1250000000000000e+02
        3.1250000000000000e+02 3.1250000000000000e+02
        3.1250000000000000e+02 3.1250000000000000e+02
        2.5008476411810210e+02 3.1250000000000000e+02
        3.1250000000000000e+02 3.1250000000000000e+02
        3.1250000000000000e+02 3.1250000000000000e+02
        3.1250000000000000e+02 3.1250000000000000e+02
        3.1250000000000000e+02 3.1250000000000000e+02
        3.1250000000000000e+02 3.1250000000000000e+02
        3.1250000000000000e+02 3.1250000000000000e+02
        3.1250000000000000e+02 3.1250000000000000e+02
        3.1250000000000000e+02 3.1250000000000000e+02
        3.1250000000000000e+02 3.1250000000000000e+02
        3.1250000000000000e+02 3.1250000000000000e+02
        3.1250000000000000e+02 3.1250000000000000e+02
        3.1250000000000000e+02 3.1250000000000000e+02
        3.1250000000000000e+02 3.1250000000000000e+02
        -3.1250000000000000e+02 -3.1250000000000000e+02
        -3.1250000000000000e+02 -3.1250000000000000e+02
        -3.1250000000000000e+02 -3.1250000000000000e+02
        -7.8246122784039073e+01 -3.1250000000000000e+02
        -3.1250000000000000e+02 -3.1250000000000000e+02
        -3.1250000000000000e+02 -3.1250000000000000e+02
        -3.1250000000000000e+02 -3.1250000000000000e+02
        -3.1250000000000000e+02 -3.1250000000000000e+02
        -3.1250000000000000e+02 -3.1250000000000000e+02
        -3.1250000000000000e+02 -3.1250000000000000e+02
        -3.1250000000000000e+02 -3.1250000000000000e+02
        -3.1250000000000000e+02 -3.1250000000000000e+02
        -3.1250000000000000e+02 -3.1250000000000000e+02
        -3.1250000000000000e+02 -3.1250000000000000e+02
        -3.1250000000000000e+02 -3.1250000000000000e+02
        -3.1250000000000000e+02 -3.1250000000000000e+02
        -3.1250000000000000e+02 -3.1250000000000000e+02
        -3.1250000000000000e+02 -3.1250000000000000e+02
        -3.1250000000000000e+02 -3.1250000000000000e+02
        -3.1250000000000000e+02 -3.1250000000000000e+02
        -3.1250000000000000e+02 -3.1250000000000000e+02
        -3.1250000000000000e+02 -3.1250000000000000e+02
        -3.1250000000000000e+02 -3.1250000000000000e+02
        -3.1250000000000000e+02 -3.1250000000000000e+02
        -3.1250000000000000e+02 -3.1250000000000000e+02
        -3.1250000000000000e+02 -3.1250000000000000e+02
        -3.1250000000000000e+02 -3.1250000000000000e+02
        -3.1250000000000000e+02 -3.1250000000000000e+02
        -3.1250000000000000e+02 -3.1250000000000000e+02
        -3.1250000000000000e+02 -3.1250000000000000e+02
        -3.1250000000000000e+02 -3.1250000000000000e+02
        -3.1250000000000000e+02 -3.1250000000000000e+02
        -3.1250000000000000e+02 -3.1250000000000000e+02
        -3.1250000000000000e+02 -3.1250000000000000e+02
        -3.1250000000000000e+02 -3.1250000000000000e+02
        -3.1016179434093829e+02 -3.1250000000000000e+02
        -3.1250000000000000e+02 -3.1250000000000000e+02
        -3.1250000000000000e+02 -3.1250000000000000e+02
        -3.1250000000000000e+02 -1.4949362850614776e+02
        -3.1250000000000000e+02 -3.1250000000000000e+02
        -8.1629775921849628e+01 -3.1250000000000000e+02
        -3.1250000000000000e+02 -3.1250000000000000e+02
        -3.1250000000000000e+02 -3.1250000000000000e+02
        -3.1250000000000000e+02 -3.1250000000000000e+02
        -3.1250000000000000e+02 -3.1250000000000000e+02
        -3.1250000000000000e+02 -3.1250000000000000e+02
        -3.1250000000000000e+02 -3.1250000000000000e+02
        -3.1250000000000000e+02 -3.1250000000000000e+02
        -3.1250000000000000e+02 -3.1250000000000000e+02
        -3.1250000000000000e+02 -3.1250000000000000e+02
        -3.1250000000000000e+02 -3.1250000000000000e+02
        -3.1250000000000000e+02 -3.1250000000000000e+02
        -3.1250000000000000e+02 -3.1250000000000000e+02
        -3.1250000000000000e+02 -3.1250000000000000e+02
        -3.1250000000000000e+02 -3.1250000000000000e+02</alpha>
      <index>
        100 101 102 103 104 105 106 107 108 109 110 111 112 113 114 115
        116 117 119 120 121 122 123 124 125 126 127 128 130 131 133 134
        135 136 137 138 139 140 141 142 143 144 146 147 148 149 150 151
        153 155 157 158 159 160 161 163 164 165 166 168 169 173 174 175
        176 177 178 179 181 182 183 185 186 187 188 189 190 191 192 193
        195 196 197 198 199 200 202 203 204 205 206 207 208 209 210 211
        212 213 214 215 217 218 219 223 224 225 226 227 229 230 231 232
        233 234 235 236 237 240 241 242 243 244 245 246 247 248 249 250
        251 252 253 254 255 257 258 259 260 262 263 264 265 267 268 269
        272 274 275 276 277 278 279 281 282 285 286 288 289 291 292 293
        295 296 298 299 302 303 305 308 309 310 311 312 313 314 315 316
        318 319 320 322 323 324 325 327 328 329 332 342 343 344 345 346
        347 348 350 351 352 353 354 355 356 357 361 362 365 367 369 371
        373 377 378 379 380 381 382 385 387 388 389 390</index></_></decision_functions></my_svm>
</opencv_storage>
