<?xml version="1.0"?>
<opencv_storage>
<my_svm type_id="opencv-ml-svm">
  <svm_type>C_SVC</svm_type>
  <kernel><type>RBF</type>
    <gamma>5.0625000000000009e-01</gamma></kernel>
  <C>3.1250000000000000e+02</C>
  <term_criteria><epsilon>1.1920928955078125e-07</epsilon>
    <iterations>10000</iterations></term_criteria>
  <var_all>4</var_all>
  <var_count>4</var_count>
  <class_count>2</class_count>
  <class_labels type_id="opencv-matrix">
    <rows>1</rows>
    <cols>2</cols>
    <dt>i</dt>
    <data>
      -1 1</data></class_labels>
  <sv_total>74</sv_total>
  <support_vectors>
    <_>
      4.14527088e-01 3.05402756e-01 1.39301822e-01 3.71189713e-02</_>
    <_>
      4.10268664e-01 4.78436202e-01 4.85206619e-02 3.54722217e-02</_>
    <_>
      4.14470404e-01 3.08615655e-01 1.45119101e-01 3.86543944e-02</_>
    <_>
      4.13974553e-01 3.12168986e-01 1.44561753e-01 3.79181355e-02</_>
    <_>
      4.14538294e-01 3.04980218e-01 1.42074108e-01 3.75981741e-02</_>
    <_>
      4.14234608e-01 3.07388276e-01 1.43518046e-01 3.95954177e-02</_>
    <_>
      4.13882703e-01 3.05227667e-01 1.38597682e-01 3.45598906e-02</_>
    <_>
      4.14858788e-01 3.05741161e-01 1.39806733e-01 3.70580554e-02</_>
    <_>
      4.13754553e-01 4.81333405e-01 5.42040616e-02 3.96076925e-02</_>
    <_>
      4.14379388e-01 3.11879694e-01 1.46336794e-01 3.58732417e-02</_>
    <_>
      4.14005727e-01 4.81805682e-01 5.28249033e-02 4.01587337e-02</_>
    <_>
      4.14807767e-01 3.05688232e-01 1.41105920e-01 3.68789919e-02</_>
    <_>
      4.14315820e-01 3.07467669e-01 1.46189749e-01 3.93474437e-02</_>
    <_>
      5.45100570e-01 2.54257709e-01 4.52604622e-01 8.21443424e-02</_>
    <_>
      4.91798937e-01 1.83570191e-01 2.39519745e-01 6.04644828e-02</_>
    <_>
      4.13567334e-01 4.81233388e-01 5.06830104e-02 4.03133668e-02</_>
    <_>
      4.14055228e-01 4.82538164e-01 5.39215207e-02 3.97941619e-02</_>
    <_>
      4.13466126e-01 3.03263634e-01 1.43425599e-01 3.86500135e-02</_>
    <_>
      4.01981086e-01 3.50930065e-01 1.20235279e-01 3.43453176e-02</_>
    <_>
      4.15488243e-01 3.10599893e-01 1.41820982e-01 3.67793478e-02</_>
    <_>
      4.13567811e-01 3.03697318e-01 1.45104557e-01 3.92920338e-02</_>
    <_>
      4.14582908e-01 3.10726851e-01 1.45604521e-01 3.65062281e-02</_>
    <_>
      4.14981961e-01 3.07936490e-01 1.38779372e-01 3.76491882e-02</_>
    <_>
      4.74068522e-01 2.07284868e-01 2.84288287e-01 7.71545544e-02</_>
    <_>
      4.15181965e-01 3.08514059e-01 1.37896016e-01 3.70739959e-02</_>
    <_>
      5.22063732e-01 4.69793379e-01 8.57138574e-01 1.01709768e-01</_>
    <_>
      4.15372670e-01 3.09885889e-01 1.41876072e-01 3.93003598e-02</_>
    <_>
      5.55317581e-01 3.91626626e-01 7.25679398e-01 1.05228774e-01</_>
    <_>
      4.10631657e-01 4.78151441e-01 4.82461527e-02 3.71219665e-02</_>
    <_>
      4.10615474e-01 4.78212893e-01 4.80736084e-02 3.67295034e-02</_>
    <_>
      4.13266033e-01 4.80598599e-01 5.18171415e-02 4.02587317e-02</_>
    <_>
      4.10540998e-01 4.80489045e-01 5.05556874e-02 3.64031531e-02</_>
    <_>
      4.13319141e-01 4.81397063e-01 5.23539595e-02 4.07987200e-02</_>
    <_>
      3.98553878e-01 4.65026587e-01 6.07155897e-02 3.02260984e-02</_>
    <_>
      4.13140804e-01 4.81125504e-01 5.17174006e-02 4.08940203e-02</_>
    <_>
      4.13050950e-01 4.80641395e-01 5.19626737e-02 4.07556482e-02</_>
    <_>
      4.10865277e-01 4.79908526e-01 4.88189049e-02 3.66658680e-02</_>
    <_>
      4.74496007e-01 4.53889012e-01 7.32955933e-02 3.14357355e-02</_>
    <_>
      3.52503836e-01 3.81990254e-01 1.69308484e-01 2.99853384e-02</_>
    <_>
      4.74572092e-01 5.11844277e-01 4.60932516e-02 3.52945253e-02</_>
    <_>
      3.51321310e-01 3.38379174e-01 1.89936802e-01 3.51150595e-02</_>
    <_>
      3.47009957e-01 3.27951580e-01 1.92065313e-01 3.24474461e-02</_>
    <_>
      3.56904209e-01 2.60698885e-01 2.01881856e-01 2.97344122e-02</_>
    <_>
      4.84521657e-01 4.44664001e-01 8.29510465e-02 3.31445858e-02</_>
    <_>
      5.15894115e-01 1.02338403e-01 1.17703654e-01 3.13996188e-02</_>
    <_>
      3.47008020e-01 3.36511493e-01 1.93843290e-01 3.12279668e-02</_>
    <_>
      5.12681663e-01 4.31068093e-01 8.44352320e-02 3.54894325e-02</_>
    <_>
      4.66792643e-01 4.59925801e-01 6.59236312e-02 3.06788795e-02</_>
    <_>
      4.82791811e-01 1.91343397e-01 2.55387008e-01 6.92614168e-02</_>
    <_>
      3.49414974e-01 3.56246740e-01 1.79392666e-01 3.12638730e-02</_>
    <_>
      4.50185955e-01 4.88216043e-01 6.68753237e-02 3.82009260e-02</_>
    <_>
      3.47641826e-01 4.41295654e-01 1.23413704e-01 3.90945338e-02</_>
    <_>
      3.40498626e-01 3.11677992e-01 1.98248416e-01 3.33893746e-02</_>
    <_>
      3.50949198e-01 3.58871579e-01 1.83993161e-01 3.18937153e-02</_>
    <_>
      4.82599735e-01 4.62465316e-01 6.89361989e-02 3.11648566e-02</_>
    <_>
      5.11767447e-01 4.59583968e-01 6.35161549e-02 4.16667871e-02</_>
    <_>
      3.48020554e-01 3.56109351e-01 1.74634129e-01 2.82187033e-02</_>
    <_>
      4.69878286e-01 5.01594782e-01 5.22321425e-02 3.37379389e-02</_>
    <_>
      4.63940114e-01 4.72544342e-01 6.53089136e-02 3.72228026e-02</_>
    <_>
      5.10789216e-01 1.23624749e-01 1.26812235e-01 4.41493951e-02</_>
    <_>
      5.16270995e-01 1.01942994e-01 1.15221187e-01 3.26415077e-02</_>
    <_>
      3.50949198e-01 3.58871579e-01 1.83993161e-01 3.18937153e-02</_>
    <_>
      4.68506634e-01 1.51948899e-01 2.88518757e-01 5.20270839e-02</_>
    <_>
      4.85701919e-01 4.23472047e-01 9.68282670e-02 3.72029580e-02</_>
    <_>
      4.34949309e-01 5.09372354e-01 7.41836652e-02 3.85367349e-02</_>
    <_>
      4.36291397e-01 4.64794576e-01 8.85238349e-02 3.56428735e-02</_>
    <_>
      4.83926624e-01 4.46418554e-01 7.14712143e-02 3.94800864e-02</_>
    <_>
      5.02166331e-01 4.45581138e-01 7.38186091e-02 3.30910496e-02</_>
    <_>
      3.67335677e-01 3.31719995e-01 1.57875165e-01 3.35476212e-02</_>
    <_>
      2.41250560e-01 2.73130864e-01 2.08603844e-01 3.46708484e-02</_>
    <_>
      4.63334769e-01 4.91055846e-01 5.76646738e-02 3.75065990e-02</_>
    <_>
      3.51631820e-01 3.33767533e-01 1.78833708e-01 3.51352803e-02</_>
    <_>
      4.63955820e-01 4.96390879e-01 6.22673556e-02 3.57633717e-02</_>
    <_>
      3.46480250e-01 3.57600391e-01 1.71220481e-01 2.94539630e-02</_></support_vectors>
  <decision_functions>
    <_>
      <sv_count>74</sv_count>
      <rho>1.2035709629681859e+01</rho>
      <alpha>
        3.1250000000000000e+02 3.1250000000000000e+02
        3.1250000000000000e+02 3.1250000000000000e+02
        3.1250000000000000e+02 3.1250000000000000e+02
        3.1250000000000000e+02 3.1250000000000000e+02
        3.1250000000000000e+02 3.1250000000000000e+02
        3.1250000000000000e+02 3.1250000000000000e+02
        3.1250000000000000e+02 3.1250000000000000e+02
        3.1250000000000000e+02 3.1250000000000000e+02
        3.1250000000000000e+02 3.1250000000000000e+02
        3.1250000000000000e+02 3.1250000000000000e+02
        3.1250000000000000e+02 3.1250000000000000e+02
        3.1250000000000000e+02 3.1250000000000000e+02
        3.1250000000000000e+02 5.8289525101959320e+01
        3.1250000000000000e+02 6.6344585752698109e+01
        3.4293322692692961e+01 3.1250000000000000e+02
        3.1250000000000000e+02 3.1250000000000000e+02
        3.1250000000000000e+02 3.1250000000000000e+02
        3.1250000000000000e+02 3.1250000000000000e+02
        3.1250000000000000e+02 -3.1250000000000000e+02
        -3.1250000000000000e+02 -6.4667376382289731e+01
        -3.1250000000000000e+02 -3.1250000000000000e+02
        -3.1250000000000000e+02 -3.1250000000000000e+02
        -3.1250000000000000e+02 -5.6615349806104554e+01
        -3.7644707358955941e+01 -3.1250000000000000e+02
        -3.1250000000000000e+02 -3.1250000000000000e+02
        -3.1250000000000000e+02 -3.1250000000000000e+02
        -3.1250000000000000e+02 -3.1250000000000000e+02
        -3.1250000000000000e+02 -3.1250000000000000e+02
        -3.1250000000000000e+02 -3.1250000000000000e+02
        -3.1250000000000000e+02 -3.1250000000000000e+02
        -3.1250000000000000e+02 -3.1250000000000000e+02
        -3.1250000000000000e+02 -3.1250000000000000e+02
        -3.1250000000000000e+02 -3.1250000000000000e+02
        -3.1250000000000000e+02 -3.1250000000000000e+02
        -3.1250000000000000e+02 -3.1250000000000000e+02
        -3.1250000000000000e+02 -3.1250000000000000e+02
        -3.1250000000000000e+02 -3.1250000000000000e+02</alpha>
      <index>
        0 1 2 3 4 5 6 7 8 9 10 11 12 13 14 15 16 17 18 19 20 21 22 23 24
        25 26 27 28 29 30 31 32 33 34 35 36 37 38 39 40 41 42 43 44 45
        46 47 48 49 50 51 52 53 54 55 56 57 58 59 60 61 62 63 64 65 66
        67 68 69 70 71 72 73</index></_></decision_functions></my_svm>
</opencv_storage>
