<?xml version="1.0"?>
<opencv_storage>
<my_svm type_id="opencv-ml-svm">
  <svm_type>C_SVC</svm_type>
  <kernel><type>RBF</type>
    <gamma>5.0625000000000009e-01</gamma></kernel>
  <C>3.1250000000000000e+02</C>
  <term_criteria><epsilon>1.1920928955078125e-07</epsilon>
    <iterations>10000</iterations></term_criteria>
  <var_all>4</var_all>
  <var_count>4</var_count>
  <class_count>3</class_count>
  <class_labels type_id="opencv-matrix">
    <rows>1</rows>
    <cols>3</cols>
    <dt>i</dt>
    <data>
      1 2 3</data></class_labels>
  <sv_total>394</sv_total>
  <support_vectors>
    <_>
      3.51631820e-01 3.33767533e-01 1.78833708e-01 3.51352803e-02</_>
    <_>
      4.42877173e-01 5.05734146e-01 7.13276789e-02 3.43252569e-02</_>
    <_>
      4.36291397e-01 4.64794576e-01 8.85238349e-02 3.56428735e-02</_>
    <_>
      4.35668439e-01 5.16518533e-01 7.98683986e-02 3.25110368e-02</_>
    <_>
      5.27282894e-01 4.75838721e-01 5.96403852e-02 3.33411694e-02</_>
    <_>
      4.63955820e-01 4.96390879e-01 6.22673556e-02 3.57633717e-02</_>
    <_>
      3.50949198e-01 3.58871579e-01 1.83993161e-01 3.18937153e-02</_>
    <_>
      3.06837231e-01 2.24471629e-01 2.71665931e-01 2.67343633e-02</_>
    <_>
      3.46480250e-01 3.57600391e-01 1.71220481e-01 2.94539630e-02</_>
    <_>
      2.10364252e-01 5.19751370e-01 2.20631272e-01 2.58724466e-02</_>
    <_>
      5.16270995e-01 1.01942994e-01 1.15221187e-01 3.26415077e-02</_>
    <_>
      3.43544066e-01 3.71754467e-01 1.78000912e-01 3.08874343e-02</_>
    <_>
      3.40498626e-01 3.11677992e-01 1.98248416e-01 3.33893746e-02</_>
    <_>
      3.47009957e-01 3.27951580e-01 1.92065313e-01 3.24474461e-02</_>
    <_>
      4.83044773e-01 4.74527866e-01 5.93262464e-02 2.81589869e-02</_>
    <_>
      6.54292762e-01 1.70259133e-01 3.33473861e-01 3.78286429e-02</_>
    <_>
      5.10513902e-01 5.83988488e-01 8.90357345e-02 3.37624364e-02</_>
    <_>
      5.60009301e-01 4.22920734e-01 1.13609456e-01 3.73239443e-02</_>
    <_>
      3.96555781e-01 5.24958670e-01 1.17333360e-01 3.28883938e-02</_>
    <_>
      4.41602916e-01 5.28685927e-01 7.59512335e-02 3.77055220e-02</_>
    <_>
      4.74496007e-01 4.53889012e-01 7.32955933e-02 3.14357355e-02</_>
    <_>
      4.15460378e-01 5.16628861e-01 1.09158158e-01 3.45927440e-02</_>
    <_>
      5.45429111e-01 5.50430417e-01 7.92060122e-02 3.72234173e-02</_>
    <_>
      4.50185955e-01 4.88216043e-01 6.68753237e-02 3.82009260e-02</_>
    <_>
      3.47641826e-01 4.41295654e-01 1.23413704e-01 3.90945338e-02</_>
    <_>
      4.63940114e-01 4.72544342e-01 6.53089136e-02 3.72228026e-02</_>
    <_>
      5.15894115e-01 1.02338403e-01 1.17703654e-01 3.13996188e-02</_>
    <_>
      4.82599735e-01 4.62465316e-01 6.89361989e-02 3.11648566e-02</_>
    <_>
      4.34949309e-01 5.09372354e-01 7.41836652e-02 3.85367349e-02</_>
    <_>
      5.02166331e-01 4.45581138e-01 7.38186091e-02 3.30910496e-02</_>
    <_>
      4.74572092e-01 5.11844277e-01 4.60932516e-02 3.52945253e-02</_>
    <_>
      4.84521657e-01 4.44664001e-01 8.29510465e-02 3.31445858e-02</_>
    <_>
      4.24499214e-01 5.47261178e-01 1.00614801e-01 3.78748178e-02</_>
    <_>
      3.31848979e-01 3.99316400e-01 1.79174393e-01 2.89357509e-02</_>
    <_>
      3.56904209e-01 2.60698885e-01 2.01881856e-01 2.97344122e-02</_>
    <_>
      4.76204187e-01 4.83043820e-01 6.24886677e-02 3.11330464e-02</_>
    <_>
      5.39684176e-01 5.35075068e-01 7.33183622e-02 3.61921825e-02</_>
    <_>
      5.10789216e-01 1.23624749e-01 1.26812235e-01 4.41493951e-02</_>
    <_>
      4.85701919e-01 4.23472047e-01 9.68282670e-02 3.72029580e-02</_>
    <_>
      3.39061707e-01 4.08452630e-01 1.64687112e-01 2.76428331e-02</_>
    <_>
      3.47008020e-01 3.36511493e-01 1.93843290e-01 3.12279668e-02</_>
    <_>
      2.18807071e-01 3.25407118e-01 2.65814096e-01 2.82007493e-02</_>
    <_>
      4.83926624e-01 4.46418554e-01 7.14712143e-02 3.94800864e-02</_>
    <_>
      2.62552768e-01 2.75736898e-01 2.66988248e-01 2.72549912e-02</_>
    <_>
      3.49414974e-01 3.56246740e-01 1.79392666e-01 3.12638730e-02</_>
    <_>
      2.77714401e-01 2.26316348e-01 2.75738299e-01 2.73206066e-02</_>
    <_>
      2.41250560e-01 2.73130864e-01 2.08603844e-01 3.46708484e-02</_>
    <_>
      4.31212008e-01 5.52270293e-01 1.16206735e-01 2.76598968e-02</_>
    <_>
      5.12681663e-01 4.31068093e-01 8.44352320e-02 3.54894325e-02</_>
    <_>
      5.29596388e-01 4.24958497e-01 9.35920253e-02 3.25607806e-02</_>
    <_>
      3.52503836e-01 3.81990254e-01 1.69308484e-01 2.99853384e-02</_>
    <_>
      4.50364113e-01 5.17443120e-01 6.81329519e-02 3.69882323e-02</_>
    <_>
      4.68506634e-01 1.51948899e-01 2.88518757e-01 5.20270839e-02</_>
    <_>
      3.39394927e-01 4.20329243e-01 1.64051801e-01 3.15817408e-02</_>
    <_>
      4.82791811e-01 1.91343397e-01 2.55387008e-01 6.92614168e-02</_>
    <_>
      3.67335677e-01 3.31719995e-01 1.57875165e-01 3.35476212e-02</_>
    <_>
      4.66792643e-01 4.59925801e-01 6.59236312e-02 3.06788795e-02</_>
    <_>
      3.79565716e-01 5.25186956e-01 1.12482332e-01 3.61613818e-02</_>
    <_>
      4.05595809e-01 5.38753569e-01 1.12165459e-01 3.61557603e-02</_>
    <_>
      3.48020554e-01 3.56109351e-01 1.74634129e-01 2.82187033e-02</_>
    <_>
      5.39141834e-01 4.11705881e-01 1.04353853e-01 3.20424847e-02</_>
    <_>
      4.63334769e-01 4.91055846e-01 5.76646738e-02 3.75065990e-02</_>
    <_>
      3.51321310e-01 3.38379174e-01 1.89936802e-01 3.51150595e-02</_>
    <_>
      4.25821334e-01 5.24107873e-01 8.65657777e-02 3.98822166e-02</_>
    <_>
      4.69878286e-01 5.01594782e-01 5.22321425e-02 3.37379389e-02</_>
    <_>
      5.62178731e-01 3.88887286e-01 1.34565547e-01 3.49285603e-02</_>
    <_>
      5.11767447e-01 4.59583968e-01 6.35161549e-02 4.16667871e-02</_>
    <_>
      4.78175223e-01 4.74537343e-01 6.93487301e-02 3.06541249e-02</_>
    <_>
      5.36313891e-01 4.39467698e-01 7.86984488e-02 3.81090306e-02</_>
    <_>
      3.50949198e-01 3.58871579e-01 1.83993161e-01 3.18937153e-02</_>
    <_>
      4.29035217e-01 5.28977513e-01 9.13246572e-02 3.95939536e-02</_>
    <_>
      4.50388074e-01 5.54661810e-01 7.91777223e-02 3.75291593e-02</_>
    <_>
      4.37304586e-01 4.95280921e-01 8.46067294e-02 3.03594973e-02</_>
    <_>
      4.50864017e-01 5.31142831e-01 7.89543167e-02 3.81620079e-02</_>
    <_>
      4.14507806e-01 3.03568184e-01 1.27327755e-01 3.64992507e-02</_>
    <_>
      4.14470404e-01 3.08615655e-01 1.45119101e-01 3.86543944e-02</_>
    <_>
      4.23217505e-01 3.58432651e-01 8.02973434e-02 3.32546607e-02</_>
    <_>
      4.22418326e-01 3.76216471e-01 6.71065301e-02 3.36912833e-02</_>
    <_>
      4.23508286e-01 3.58228475e-01 8.09725896e-02 3.25918682e-02</_>
    <_>
      4.13998753e-01 3.04275513e-01 1.26287207e-01 3.63417715e-02</_>
    <_>
      4.21751678e-01 3.72091711e-01 6.58351704e-02 2.66685355e-02</_>
    <_>
      4.23915267e-01 3.58219951e-01 7.96698481e-02 3.28819044e-02</_>
    <_>
      4.09625232e-01 4.78428274e-01 4.64588031e-02 3.68103497e-02</_>
    <_>
      4.23438966e-01 3.58480334e-01 8.04085210e-02 3.30621414e-02</_>
    <_>
      4.22404230e-01 3.69803846e-01 5.93630038e-02 3.06290258e-02</_>
    <_>
      4.23339456e-01 3.61239344e-01 7.46755302e-02 3.21040303e-02</_>
    <_>
      4.23574656e-01 3.59544218e-01 8.07016343e-02 3.22595127e-02</_>
    <_>
      4.08062994e-01 3.02911103e-01 8.90377313e-02 3.65760960e-02</_>
    <_>
      4.03359085e-01 3.77577692e-01 8.86568874e-02 3.12229618e-02</_>
    <_>
      4.04207915e-01 3.03308427e-01 9.04400498e-02 3.75693180e-02</_>
    <_>
      4.14981961e-01 3.07936490e-01 1.38779372e-01 3.76491882e-02</_>
    <_>
      4.23486918e-01 3.58744234e-01 8.00375044e-02 3.30758318e-02</_>
    <_>
      4.21320379e-01 3.58996600e-01 8.63276422e-02 3.27297337e-02</_>
    <_>
      4.24774259e-01 3.59693795e-01 8.03100392e-02 3.39327902e-02</_>
    <_>
      4.14163917e-01 3.02429497e-01 1.27566993e-01 3.62243205e-02</_>
    <_>
      4.09319311e-01 4.78847831e-01 4.68041040e-02 3.67749333e-02</_>
    <_>
      4.10865277e-01 4.79908526e-01 4.88189049e-02 3.66658680e-02</_>
    <_>
      4.91798937e-01 1.83570191e-01 2.39519745e-01 6.04644828e-02</_>
    <_>
      4.09332246e-01 4.77866232e-01 4.61957678e-02 3.71385291e-02</_>
    <_>
      4.15181965e-01 3.08514059e-01 1.37896016e-01 3.70739959e-02</_>
    <_>
      4.11047101e-01 4.77756411e-01 4.66662236e-02 3.73681150e-02</_>
    <_>
      4.23653096e-01 3.58953893e-01 8.03950131e-02 3.33157592e-02</_>
    <_>
      4.01981086e-01 3.50930065e-01 1.20235279e-01 3.43453176e-02</_>
    <_>
      4.14582908e-01 3.10726851e-01 1.45604521e-01 3.65062281e-02</_>
    <_>
      4.22761738e-01 3.58579189e-01 7.80460536e-02 3.40582989e-02</_>
    <_>
      4.23854917e-01 3.59033942e-01 8.16565454e-02 3.21185924e-02</_>
    <_>
      4.14858788e-01 3.05741161e-01 1.39806733e-01 3.70580554e-02</_>
    <_>
      4.13319141e-01 4.81397063e-01 5.23539595e-02 4.07987200e-02</_>
    <_>
      4.10540998e-01 4.80489045e-01 5.05556874e-02 3.64031531e-02</_>
    <_>
      4.10092771e-01 4.78353888e-01 4.77272496e-02 3.71598229e-02</_>
    <_>
      4.14379388e-01 3.11879694e-01 1.46336794e-01 3.58732417e-02</_>
    <_>
      4.06170875e-01 3.78988564e-01 7.83707872e-02 3.12313735e-02</_>
    <_>
      4.09854859e-01 4.78184670e-01 4.50868271e-02 3.69586311e-02</_>
    <_>
      4.24631298e-01 3.56956303e-01 8.34335014e-02 3.26286517e-02</_>
    <_>
      4.23178017e-01 3.58457714e-01 8.03686157e-02 3.32268290e-02</_>
    <_>
      4.22832161e-01 3.58969718e-01 8.02186728e-02 3.25956754e-02</_>
    <_>
      4.23619419e-01 3.81064624e-01 7.87792206e-02 3.36913653e-02</_>
    <_>
      4.21641201e-01 3.56795579e-01 7.83904493e-02 3.35419998e-02</_>
    <_>
      4.24116999e-01 3.77986401e-01 6.81149215e-02 3.36535387e-02</_>
    <_>
      4.23245370e-01 3.60154420e-01 7.68554732e-02 3.24946456e-02</_>
    <_>
      4.21186358e-01 3.58949810e-01 7.88328722e-02 3.22020575e-02</_>
    <_>
      5.55317581e-01 3.91626626e-01 7.25679398e-01 1.05228774e-01</_>
    <_>
      4.23555881e-01 3.58598888e-01 8.01186711e-02 3.31190154e-02</_>
    <_>
      4.13882703e-01 3.05227667e-01 1.38597682e-01 3.45598906e-02</_>
    <_>
      4.13974553e-01 3.12168986e-01 1.44561753e-01 3.79181355e-02</_>
    <_>
      4.23525393e-01 3.58494937e-01 8.00671503e-02 3.27018872e-02</_>
    <_>
      4.14293170e-01 3.77342224e-01 8.02602619e-02 3.34557481e-02</_>
    <_>
      4.09122556e-01 4.77764040e-01 4.61250544e-02 3.73222195e-02</_>
    <_>
      4.23340857e-01 3.73649865e-01 5.52503243e-02 2.84137223e-02</_>
    <_>
      4.13050950e-01 4.80641395e-01 5.19626737e-02 4.07556482e-02</_>
    <_>
      4.15488243e-01 3.10599893e-01 1.41820982e-01 3.67793478e-02</_>
    <_>
      4.24208701e-01 3.58025759e-01 8.80264118e-02 3.07534803e-02</_>
    <_>
      4.21287268e-01 3.77389222e-01 7.50098452e-02 3.38231362e-02</_>
    <_>
      4.23326671e-01 3.58472228e-01 7.98390880e-02 3.23002189e-02</_>
    <_>
      4.14582521e-01 2.99160421e-01 1.21324673e-01 3.51052843e-02</_>
    <_>
      4.09157634e-01 4.78248924e-01 4.51978445e-02 3.72713022e-02</_>
    <_>
      4.11305279e-01 4.77492273e-01 4.53611016e-02 3.72277088e-02</_>
    <_>
      4.22679693e-01 3.77748281e-01 7.02629089e-02 3.38547081e-02</_>
    <_>
      5.22063732e-01 4.69793379e-01 8.57138574e-01 1.01709768e-01</_>
    <_>
      4.09408510e-01 4.78517413e-01 4.53436412e-02 3.64685059e-02</_>
    <_>
      4.10318941e-01 4.77704346e-01 4.61677797e-02 3.59829552e-02</_>
    <_>
      4.14527088e-01 3.05402756e-01 1.39301822e-01 3.71189713e-02</_>
    <_>
      4.14315820e-01 3.07467669e-01 1.46189749e-01 3.93474437e-02</_>
    <_>
      4.22400087e-01 3.76782894e-01 7.01594874e-02 3.29789110e-02</_>
    <_>
      4.23228264e-01 3.59882623e-01 8.15621167e-02 3.30442302e-02</_>
    <_>
      4.23321545e-01 3.60231340e-01 7.69175366e-02 3.28014456e-02</_>
    <_>
      4.23356742e-01 3.59579682e-01 7.65031204e-02 3.41812558e-02</_>
    <_>
      4.10037816e-01 4.78034467e-01 4.64215428e-02 3.71355787e-02</_>
    <_>
      4.09350395e-01 4.77438271e-01 4.70211580e-02 3.72507572e-02</_>
    <_>
      4.22752321e-01 3.77045512e-01 7.26433024e-02 3.31312940e-02</_>
    <_>
      4.10631657e-01 4.78151441e-01 4.82461527e-02 3.71219665e-02</_>
    <_>
      4.23636556e-01 3.59206378e-01 7.97935724e-02 3.29999104e-02</_>
    <_>
      4.10737395e-01 4.77941155e-01 4.85630371e-02 3.74141671e-02</_>
    <_>
      4.10737395e-01 4.77941155e-01 4.85630371e-02 3.74141671e-02</_>
    <_>
      4.23258513e-01 3.59920472e-01 7.68523589e-02 3.35455909e-02</_>
    <_>
      4.12178606e-01 3.84635508e-01 7.94885680e-02 3.36628594e-02</_>
    <_>
      4.09773260e-01 4.78213102e-01 4.52442169e-02 3.65177728e-02</_>
    <_>
      4.74068522e-01 2.07284868e-01 2.84288287e-01 7.71545544e-02</_>
    <_>
      5.45100570e-01 2.54257709e-01 4.52604622e-01 8.21443424e-02</_>
    <_>
      3.98553878e-01 4.65026587e-01 6.07155897e-02 3.02260984e-02</_>
    <_>
      4.10484046e-01 4.78157014e-01 4.75227311e-02 3.73362079e-02</_>
    <_>
      4.10268664e-01 4.78436202e-01 4.85206619e-02 3.54722217e-02</_>
    <_>
      4.09955949e-01 4.79171693e-01 4.58242707e-02 3.75081450e-02</_>
    <_>
      4.14234608e-01 3.07388276e-01 1.43518046e-01 3.95954177e-02</_>
    <_>
      4.13684279e-01 3.00797850e-01 1.27666354e-01 3.62917036e-02</_>
    <_>
      4.24695045e-01 3.55089635e-01 8.45871493e-02 3.09391059e-02</_>
    <_>
      4.24061805e-01 3.60294253e-01 7.82210603e-02 3.11148483e-02</_>
    <_>
      4.23645139e-01 3.60726684e-01 7.75470510e-02 3.26010957e-02</_>
    <_>
      4.15372670e-01 3.09885889e-01 1.41876072e-01 3.93003598e-02</_>
    <_>
      4.23139304e-01 3.57053638e-01 8.02222714e-02 3.38015929e-02</_>
    <_>
      4.23570991e-01 3.57789159e-01 8.13865513e-02 3.24099809e-02</_>
    <_>
      4.13567334e-01 4.81233388e-01 5.06830104e-02 4.03133668e-02</_>
    <_>
      4.14005727e-01 4.81805682e-01 5.28249033e-02 4.01587337e-02</_>
    <_>
      4.23352510e-01 3.58051449e-01 7.95305222e-02 3.39884982e-02</_>
    <_>
      4.23342109e-01 3.59071106e-01 8.02289918e-02 3.29985544e-02</_>
    <_>
      4.22839314e-01 3.99269760e-01 5.51376119e-02 3.16297039e-02</_>
    <_>
      4.23124462e-01 3.59089196e-01 7.99097121e-02 3.31549197e-02</_>
    <_>
      4.01026458e-01 3.95240009e-01 7.19854087e-02 3.27876359e-02</_>
    <_>
      4.23464030e-01 3.59124243e-01 8.01430270e-02 3.30719203e-02</_>
    <_>
      4.10615474e-01 4.78212893e-01 4.80736084e-02 3.67295034e-02</_>
    <_>
      4.23738003e-01 3.59563500e-01 7.59384558e-02 3.30636539e-02</_>
    <_>
      4.23437059e-01 3.58947664e-01 8.03346783e-02 3.30350846e-02</_>
    <_>
      4.09719616e-01 4.78602111e-01 4.70033549e-02 3.65409590e-02</_>
    <_>
      4.14712459e-01 2.98824042e-01 1.13479398e-01 3.67262363e-02</_>
    <_>
      4.23602849e-01 3.59710008e-01 7.93192685e-02 3.19404006e-02</_>
    <_>
      4.14357573e-01 3.01531881e-01 1.22874513e-01 3.66005935e-02</_>
    <_>
      4.23860401e-01 3.59793305e-01 8.11810941e-02 3.10544875e-02</_>
    <_>
      4.10722077e-01 4.77729172e-01 4.65772152e-02 3.74076776e-02</_>
    <_>
      4.23459560e-01 3.59443486e-01 8.01314265e-02 3.25137042e-02</_>
    <_>
      4.08999324e-01 4.77821857e-01 4.57069129e-02 3.70186977e-02</_>
    <_>
      4.23977077e-01 3.59285742e-01 8.05581510e-02 3.22939269e-02</_>
    <_>
      6.52598441e-01 5.65729499e-01 1.11162329e+00 1.44833714e-01</_>
    <_>
      4.13466126e-01 3.03263634e-01 1.43425599e-01 3.86500135e-02</_>
    <_>
      4.23008859e-01 3.60989273e-01 7.89934322e-02 3.04508694e-02</_>
    <_>
      4.23748672e-01 3.59166920e-01 8.15443248e-02 3.20293084e-02</_>
    <_>
      4.13978398e-01 2.99288332e-01 1.20179206e-01 3.68601047e-02</_>
    <_>
      4.21287268e-01 3.77389222e-01 7.50098452e-02 3.38231362e-02</_>
    <_>
      4.23700333e-01 3.58851343e-01 8.50972608e-02 3.23313698e-02</_>
    <_>
      4.23645020e-01 3.59341532e-01 7.98047706e-02 3.29725891e-02</_>
    <_>
      4.08632606e-01 3.59316796e-01 9.36036557e-02 3.26678455e-02</_>
    <_>
      4.14538294e-01 3.04980218e-01 1.42074108e-01 3.75981741e-02</_>
    <_>
      4.13266033e-01 4.80598599e-01 5.18171415e-02 4.02587317e-02</_>
    <_>
      4.13754553e-01 4.81333405e-01 5.42040616e-02 3.96076925e-02</_>
    <_>
      4.23100919e-01 3.59056473e-01 8.03977326e-02 3.32468376e-02</_>
    <_>
      4.14785922e-01 3.04444343e-01 1.24587849e-01 3.60173658e-02</_>
    <_>
      4.13567811e-01 3.03697318e-01 1.45104557e-01 3.92920338e-02</_>
    <_>
      4.10887510e-01 4.78142053e-01 4.58542220e-02 3.66155095e-02</_>
    <_>
      4.14055228e-01 4.82538164e-01 5.39215207e-02 3.97941619e-02</_>
    <_>
      4.13684756e-01 3.00321430e-01 1.17252946e-01 3.67961973e-02</_>
    <_>
      4.10111606e-01 4.77496415e-01 4.66768481e-02 3.63467559e-02</_>
    <_>
      4.05812860e-01 3.74926299e-01 9.12339836e-02 3.22496481e-02</_>
    <_>
      4.13140804e-01 4.81125504e-01 5.17174006e-02 4.08940203e-02</_>
    <_>
      4.23033893e-01 3.57311904e-01 7.72884563e-02 3.43022086e-02</_>
    <_>
      4.20208752e-01 3.74037623e-01 5.34066632e-02 3.04333139e-02</_>
    <_>
      4.22957987e-01 3.58562499e-01 8.08154345e-02 3.31671908e-02</_>
    <_>
      4.24296468e-01 3.58529240e-01 8.03745985e-02 3.19836736e-02</_>
    <_>
      4.23326671e-01 3.58472228e-01 7.98390880e-02 3.23002189e-02</_>
    <_>
      4.23124462e-01 3.59089196e-01 7.99097121e-02 3.31549197e-02</_>
    <_>
      4.22962636e-01 3.59290183e-01 8.37453380e-02 3.05066705e-02</_>
    <_>
      4.17075634e-01 3.62032145e-01 8.03048238e-02 3.37940715e-02</_>
    <_>
      4.14807767e-01 3.05688232e-01 1.41105920e-01 3.68789919e-02</_>
    <_>
      5.68881929e-01 4.25871044e-01 7.86828101e-02 3.18398923e-02</_>
    <_>
      4.74905103e-01 2.53440887e-01 8.89060721e-02 3.22183408e-02</_>
    <_>
      4.15723354e-01 1.63593739e-01 2.24575192e-01 2.94583328e-02</_>
    <_>
      3.73870164e-01 3.05005252e-01 6.18411712e-02 3.84370163e-02</_>
    <_>
      3.74739647e-01 4.14972395e-01 8.50303173e-02 2.68366542e-02</_>
    <_>
      3.60770255e-01 5.13105273e-01 1.04466811e-01 2.80889608e-02</_>
    <_>
      4.52966362e-01 5.19636512e-01 5.11744060e-02 2.75777206e-02</_>
    <_>
      3.59016865e-01 2.97776520e-01 1.50013983e-01 2.85564363e-02</_>
    <_>
      5.05055010e-01 4.34356123e-01 5.88941835e-02 3.03815622e-02</_>
    <_>
      5.31505346e-01 5.68526924e-01 7.04605877e-02 2.93162577e-02</_>
    <_>
      5.60617089e-01 4.30260360e-01 8.44991952e-02 2.52863765e-02</_>
    <_>
      3.79799783e-01 4.26889122e-01 9.05140117e-02 2.78489217e-02</_>
    <_>
      3.75266999e-01 3.33106071e-01 9.07654613e-02 2.97822878e-02</_>
    <_>
      3.27264935e-01 3.29088867e-01 1.66273117e-01 2.54528113e-02</_>
    <_>
      5.68960488e-01 4.27552849e-01 8.38215798e-02 2.94536445e-02</_>
    <_>
      3.79720151e-01 4.00180340e-01 1.04097404e-01 2.58479621e-02</_>
    <_>
      3.19421709e-01 4.92871612e-01 1.17789321e-01 3.82436700e-02</_>
    <_>
      3.80248636e-01 4.38756019e-01 8.60597417e-02 2.89752651e-02</_>
    <_>
      3.77262175e-01 5.14844358e-01 8.97042975e-02 2.82687154e-02</_>
    <_>
      4.82938617e-01 3.50840151e-01 6.52441680e-02 2.46531274e-02</_>
    <_>
      3.60548615e-01 5.12698591e-01 1.00623690e-01 2.96455529e-02</_>
    <_>
      5.53055823e-01 4.27671432e-01 7.19154999e-02 2.91990023e-02</_>
    <_>
      3.70346457e-01 4.61048394e-01 7.80852512e-02 3.04226093e-02</_>
    <_>
      5.82388163e-01 4.44423079e-01 9.01425034e-02 2.66889036e-02</_>
    <_>
      3.81000102e-01 4.46346790e-01 8.49197879e-02 2.71041710e-02</_>
    <_>
      3.77320111e-01 4.43644851e-01 8.29389840e-02 2.53866240e-02</_>
    <_>
      3.44687581e-01 2.62693286e-01 1.96894988e-01 2.63798945e-02</_>
    <_>
      4.76882607e-01 3.08026344e-01 3.78929526e-02 3.32853086e-02</_>
    <_>
      4.63435322e-01 2.48178542e-01 4.14425060e-02 3.34346183e-02</_>
    <_>
      4.19249564e-01 5.18740773e-01 7.24433735e-02 2.78960448e-02</_>
    <_>
      5.61499059e-01 4.29716229e-01 8.38472098e-02 2.62014456e-02</_>
    <_>
      4.78638440e-01 3.58126909e-01 7.94058219e-02 2.79939361e-02</_>
    <_>
      3.72505605e-01 4.60637361e-01 7.67137110e-02 3.08022480e-02</_>
    <_>
      3.78313065e-01 3.83729517e-01 9.75484699e-02 2.60139722e-02</_>
    <_>
      3.81717086e-01 4.33026940e-01 8.78365338e-02 2.72588078e-02</_>
    <_>
      5.34231603e-01 5.67310095e-01 5.68826906e-02 3.16772312e-02</_>
    <_>
      3.80798042e-01 3.45613629e-01 7.29256123e-02 2.90584527e-02</_>
    <_>
      3.16941321e-01 4.80772465e-01 1.18542440e-01 2.79329717e-02</_>
    <_>
      3.79404366e-01 3.22183341e-01 7.01429620e-02 3.05894911e-02</_>
    <_>
      5.06049335e-01 4.35841888e-01 6.16005287e-02 2.47744881e-02</_>
    <_>
      3.77130717e-01 4.17667001e-01 9.69245359e-02 2.80154776e-02</_>
    <_>
      5.22865057e-01 4.24034119e-01 4.95568551e-02 2.74543595e-02</_>
    <_>
      3.80095273e-01 4.45524544e-01 8.40139091e-02 2.70511433e-02</_>
    <_>
      5.70567191e-01 4.23151076e-01 8.84910747e-02 3.07133719e-02</_>
    <_>
      3.69529694e-01 2.84641892e-01 1.48113444e-01 3.36329266e-02</_>
    <_>
      3.74114394e-01 4.44921583e-01 8.87705386e-02 2.65840702e-02</_>
    <_>
      3.72289151e-01 4.59975451e-01 7.76291043e-02 2.94323694e-02</_>
    <_>
      3.44014794e-01 3.05169255e-01 4.21569496e-02 3.08530554e-02</_>
    <_>
      4.75078911e-01 2.95003563e-01 3.87701206e-02 3.45040783e-02</_>
    <_>
      5.02007067e-01 4.06185001e-01 7.54835531e-02 2.71404758e-02</_>
    <_>
      4.70818400e-01 2.81009942e-01 4.09952812e-02 3.16135362e-02</_>
    <_>
      5.32002807e-01 5.67970276e-01 6.56078011e-02 3.13015133e-02</_>
    <_>
      4.51767027e-01 5.20793796e-01 5.09166643e-02 2.87668370e-02</_>
    <_>
      4.13390100e-01 1.43457279e-01 2.46959105e-01 3.03599052e-02</_>
    <_>
      5.80776393e-01 4.45247114e-01 8.92000645e-02 2.55835447e-02</_>
    <_>
      4.23948944e-01 5.19529939e-01 7.75637180e-02 2.68361643e-02</_>
    <_>
      4.15006757e-01 1.65312082e-01 2.20933393e-01 2.96155550e-02</_>
    <_>
      3.07574302e-01 4.73791808e-01 1.26016334e-01 2.71066520e-02</_>
    <_>
      5.61802745e-01 4.29541945e-01 8.37333575e-02 2.68098824e-02</_>
    <_>
      3.75317872e-01 4.12550330e-01 9.42797512e-02 2.80169509e-02</_>
    <_>
      3.82864445e-01 4.28243786e-01 9.10122022e-02 2.62386873e-02</_>
    <_>
      4.80948776e-01 3.92290652e-01 6.95099533e-02 3.39237414e-02</_>
    <_>
      4.66655165e-01 2.62595654e-01 4.02227528e-02 3.18338200e-02</_>
    <_>
      3.19085777e-01 4.91643071e-01 1.11845002e-01 3.84699106e-02</_>
    <_>
      5.01780987e-01 4.07044321e-01 7.38746971e-02 2.58065797e-02</_>
    <_>
      4.82572764e-01 4.26678300e-01 4.27264161e-02 3.21980380e-02</_>
    <_>
      3.29224974e-01 3.14109981e-01 1.63692042e-01 2.67396737e-02</_>
    <_>
      4.99507397e-01 3.99155229e-01 7.85949901e-02 2.79888920e-02</_>
    <_>
      4.30260241e-01 5.19918084e-01 7.49662444e-02 2.71164067e-02</_>
    <_>
      4.16460812e-01 1.38046890e-01 2.38092229e-01 3.02785560e-02</_>
    <_>
      3.76673907e-01 5.14713526e-01 1.01193033e-01 2.76551433e-02</_>
    <_>
      4.94302660e-01 5.74888825e-01 6.14144728e-02 2.61801425e-02</_>
    <_>
      3.59402925e-01 3.13078761e-01 1.42262429e-01 2.89363787e-02</_>
    <_>
      3.48711193e-01 5.08533359e-01 9.19534490e-02 3.30609158e-02</_>
    <_>
      3.76152575e-01 4.13422495e-01 9.21574980e-02 2.78169028e-02</_>
    <_>
      3.75295371e-01 4.11046028e-01 9.81160700e-02 2.71955058e-02</_>
    <_>
      3.76258582e-01 3.89929324e-01 7.95004740e-02 2.94468794e-02</_>
    <_>
      3.83493930e-01 3.52749079e-01 7.38116130e-02 2.64296308e-02</_>
    <_>
      4.95494515e-01 3.94713610e-01 8.54407474e-02 2.81954575e-02</_>
    <_>
      3.45403254e-01 5.01603544e-01 9.32841524e-02 4.12317477e-02</_>
    <_>
      3.27073753e-01 3.12150598e-01 1.70737028e-01 2.65674964e-02</_>
    <_>
      3.72639835e-01 4.58208203e-01 7.98241049e-02 2.80049574e-02</_>
    <_>
      4.72713768e-01 2.86990196e-01 4.06690575e-02 3.23516540e-02</_>
    <_>
      4.94596094e-01 5.76900244e-01 5.89923784e-02 2.67947540e-02</_>
    <_>
      3.70581657e-01 5.14184594e-01 9.61520970e-02 2.78368872e-02</_>
    <_>
      3.75900477e-01 3.38916838e-01 1.00429699e-01 2.67855786e-02</_>
    <_>
      4.80903149e-01 4.00550723e-01 6.27371818e-02 3.14416327e-02</_>
    <_>
      3.27542126e-01 3.12326938e-01 1.62354529e-01 2.72553433e-02</_>
    <_>
      5.33850253e-01 5.66499412e-01 5.29807359e-02 3.13612968e-02</_>
    <_>
      3.76825899e-01 3.90166312e-01 9.45926160e-02 2.81562004e-02</_>
    <_>
      5.33220649e-01 5.69973528e-01 5.76075166e-02 3.09682991e-02</_>
    <_>
      5.67619979e-01 4.28619593e-01 8.09789374e-02 2.90384255e-02</_>
    <_>
      3.71978492e-01 3.24933261e-01 9.75669846e-02 2.94293538e-02</_>
    <_>
      3.90511960e-01 3.70622158e-01 6.93116635e-02 2.48692203e-02</_>
    <_>
      3.76276553e-01 3.97003621e-01 7.85038248e-02 2.94051860e-02</_>
    <_>
      5.08485138e-01 4.25460875e-01 6.11365922e-02 2.44422015e-02</_>
    <_>
      4.79220301e-01 3.25745255e-01 3.95251065e-02 3.27835195e-02</_>
    <_>
      4.79747385e-01 3.39702934e-01 3.58507968e-02 3.25788371e-02</_>
    <_>
      4.84393388e-01 4.22343075e-01 4.44401018e-02 2.90427916e-02</_>
    <_>
      4.69801724e-01 2.75202096e-01 3.83972488e-02 3.15254517e-02</_>
    <_>
      3.70097190e-01 2.84704119e-01 1.46361321e-01 3.80824432e-02</_>
    <_>
      4.09077018e-01 5.18087685e-01 8.25860053e-02 2.67333444e-02</_>
    <_>
      4.82388288e-01 4.28565711e-01 4.55099680e-02 3.14264446e-02</_>
    <_>
      3.76466900e-01 4.08050060e-01 9.70649347e-02 2.74862889e-02</_>
    <_>
      3.21468294e-01 4.92368430e-01 1.16036996e-01 3.95641848e-02</_>
    <_>
      4.74363595e-01 1.79920658e-01 2.23703340e-01 2.65902579e-02</_>
    <_>
      4.84965950e-01 4.22137380e-01 4.83802147e-02 2.60140803e-02</_>
    <_>
      3.23883832e-01 2.51388550e-01 1.19816899e-01 3.88123766e-02</_>
    <_>
      5.67571700e-01 4.27252829e-01 8.04243758e-02 2.83792820e-02</_>
    <_>
      4.00828183e-01 5.16728580e-01 6.47929162e-02 2.86541935e-02</_>
    <_>
      4.77802485e-01 3.69731903e-01 6.86731711e-02 3.22514325e-02</_>
    <_>
      3.51528496e-01 3.22669387e-01 4.16865759e-02 3.19128782e-02</_>
    <_>
      5.29691637e-01 5.67502618e-01 5.65451868e-02 2.79291011e-02</_>
    <_>
      4.79501933e-01 3.33310395e-01 3.66979055e-02 3.35670710e-02</_>
    <_>
      4.50895220e-01 5.21425962e-01 5.34387715e-02 2.83363983e-02</_>
    <_>
      3.57730478e-01 2.57842094e-01 1.06604949e-01 3.80361713e-02</_>
    <_>
      4.82161492e-01 3.52559119e-01 6.96221367e-02 2.37590503e-02</_>
    <_>
      4.77723241e-01 3.74059260e-01 7.23082796e-02 3.08333430e-02</_>
    <_>
      3.78797919e-01 3.86721730e-01 1.16673328e-01 2.60866359e-02</_>
    <_>
      3.77068579e-01 4.53829765e-01 9.15776044e-02 2.63025332e-02</_>
    <_>
      4.75975156e-01 2.95096248e-01 3.92401367e-02 3.34775634e-02</_>
    <_>
      3.48543137e-01 3.15683424e-01 4.35490385e-02 3.08534037e-02</_>
    <_>
      3.20720077e-01 4.94865030e-01 1.19295195e-01 4.07307036e-02</_>
    <_>
      3.23421925e-01 3.23032945e-01 1.63314730e-01 2.68897992e-02</_>
    <_>
      3.20102483e-01 4.93265659e-01 1.12279654e-01 3.95323597e-02</_>
    <_>
      3.71848464e-01 4.58038777e-01 8.30933228e-02 2.90342290e-02</_>
    <_>
      3.78580272e-01 4.49177206e-01 8.68041739e-02 2.59003546e-02</_>
    <_>
      3.79682958e-01 4.44122493e-01 8.54124576e-02 2.77508069e-02</_>
    <_>
      3.75995249e-01 4.21834737e-01 9.61122364e-02 2.73150709e-02</_>
    <_>
      4.65381682e-01 2.54535615e-01 3.82561684e-02 3.31855379e-02</_>
    <_>
      3.76144260e-01 4.03185457e-01 9.45343599e-02 2.72878017e-02</_>
    <_>
      4.03758138e-01 5.18047988e-01 5.42420410e-02 2.90492345e-02</_>
    <_>
      4.79280621e-01 3.39269429e-01 7.01918527e-02 2.36612838e-02</_>
    <_>
      4.77881879e-01 3.13986719e-01 3.75710092e-02 3.43949869e-02</_>
    <_>
      3.19759160e-01 4.89048034e-01 1.20696507e-01 3.44717465e-02</_>
    <_>
      5.59626639e-01 1.13103822e-01 2.00105339e-01 5.77337146e-02</_>
    <_>
      3.74600381e-01 3.77260089e-01 1.10799447e-01 2.48791836e-02</_>
    <_>
      3.77986372e-01 4.50738072e-01 8.77421275e-02 2.74213031e-02</_>
    <_>
      4.78059322e-01 3.18858266e-01 3.93055417e-02 3.33810970e-02</_>
    <_>
      3.51215959e-01 5.12091041e-01 1.03188500e-01 2.87677776e-02</_>
    <_>
      4.68166798e-01 2.68597722e-01 3.95566486e-02 3.36708389e-02</_>
    <_>
      5.87042809e-01 4.41371620e-01 8.91033038e-02 2.79278848e-02</_>
    <_>
      4.75301683e-01 3.56298715e-01 7.46876299e-02 3.22063044e-02</_>
    <_>
      4.76458848e-01 3.59115571e-01 7.31556267e-02 2.99664438e-02</_>
    <_>
      5.81048965e-01 4.45195287e-01 9.20180157e-02 2.53857281e-02</_>
    <_>
      3.20102483e-01 4.93265659e-01 1.12279654e-01 3.95323597e-02</_>
    <_>
      3.42947364e-01 5.06199300e-01 9.52337235e-02 3.65745611e-02</_>
    <_>
      3.36238027e-01 2.87992060e-01 4.82564233e-02 3.33219916e-02</_>
    <_>
      3.70319307e-01 4.61022198e-01 7.83159435e-02 3.03272102e-02</_>
    <_>
      3.53938580e-01 5.12680531e-01 1.10701904e-01 2.77334172e-02</_>
    <_>
      3.50782871e-01 5.11633217e-01 1.07102223e-01 2.76470985e-02</_>
    <_>
      3.39507222e-01 4.95539933e-01 1.06654890e-01 3.21893170e-02</_>
    <_>
      4.75761980e-01 2.99975604e-01 4.02607992e-02 3.18456329e-02</_>
    <_>
      5.45098901e-01 4.30571854e-01 5.85236736e-02 2.87337657e-02</_>
    <_>
      5.84882736e-01 4.43078965e-01 8.87347013e-02 2.69945189e-02</_>
    <_>
      3.24765623e-01 3.16587448e-01 1.69260740e-01 2.63282564e-02</_>
    <_>
      3.68284702e-01 3.13436866e-01 1.03702202e-01 2.64961235e-02</_>
    <_>
      3.75480503e-01 4.02391881e-01 8.41152966e-02 2.85350066e-02</_>
    <_>
      5.29416263e-01 5.62202394e-01 6.45913035e-02 3.01424302e-02</_>
    <_>
      3.75048190e-01 4.07728463e-01 8.21425244e-02 2.81486791e-02</_>
    <_>
      5.70780396e-01 4.24813867e-01 8.63595828e-02 2.95512937e-02</_>
    <_>
      3.68750989e-01 3.18207204e-01 9.82844755e-02 2.76993234e-02</_>
    <_>
      5.68091571e-01 4.24967617e-01 8.28001350e-02 3.22790183e-02</_>
    <_>
      5.05847752e-01 4.10021096e-01 7.50453994e-02 2.41023172e-02</_>
    <_>
      3.61112565e-01 3.01036716e-01 1.49659678e-01 3.14053372e-02</_>
    <_>
      5.01515090e-01 4.01709557e-01 8.46495554e-02 2.75947675e-02</_>
    <_>
      3.90511960e-01 3.70622158e-01 6.93116635e-02 2.48692203e-02</_>
    <_>
      3.21359068e-01 3.26769263e-01 1.62621975e-01 2.73612402e-02</_>
    <_>
      4.80708033e-01 3.42544407e-01 6.61379322e-02 2.53892280e-02</_>
    <_>
      3.40115041e-01 2.98564255e-01 4.44632173e-02 3.34353857e-02</_>
    <_>
      4.82010275e-01 4.21980113e-01 4.81050685e-02 3.12591940e-02</_>
    <_>
      5.59651911e-01 4.28708345e-01 7.76723474e-02 2.87863221e-02</_>
    <_>
      3.46571147e-01 3.11402261e-01 4.25974168e-02 3.09382249e-02</_></support_vectors>
  <decision_functions>
    <_>
      <sv_count>74</sv_count>
      <rho>-1.2035709705650794e+01</rho>
      <alpha>
        3.1250000000000000e+02 3.1250000000000000e+02
        3.1250000000000000e+02 3.1250000000000000e+02
        3.1250000000000000e+02 3.1250000000000000e+02
        3.1250000000000000e+02 3.1250000000000000e+02
        3.1250000000000000e+02 3.1250000000000000e+02
        3.1250000000000000e+02 3.1250000000000000e+02
        3.1250000000000000e+02 3.1250000000000000e+02
        3.1250000000000000e+02 3.1250000000000000e+02
        6.4667385440015181e+01 3.1250000000000000e+02
        3.1250000000000000e+02 3.1250000000000000e+02
        3.1250000000000000e+02 5.6615354658585254e+01
        3.1250000000000000e+02 3.1250000000000000e+02
        3.1250000000000000e+02 3.7644707509049638e+01
        3.1250000000000000e+02 3.1250000000000000e+02
        3.1250000000000000e+02 3.1250000000000000e+02
        3.1250000000000000e+02 3.1250000000000000e+02
        3.1250000000000000e+02 3.1250000000000000e+02
        3.1250000000000000e+02 3.1250000000000000e+02
        3.1250000000000000e+02 -3.1250000000000000e+02
        -3.1250000000000000e+02 -3.1250000000000000e+02
        -3.1250000000000000e+02 -3.1250000000000000e+02
        -3.1250000000000000e+02 -3.1250000000000000e+02
        -3.1250000000000000e+02 -3.1250000000000000e+02
        -3.1250000000000000e+02 -3.1250000000000000e+02
        -6.6344591534590350e+01 -3.1250000000000000e+02
        -3.1250000000000000e+02 -3.1250000000000000e+02
        -3.1250000000000000e+02 -5.8289520755611925e+01
        -3.1250000000000000e+02 -3.1250000000000000e+02
        -3.4293335317447500e+01 -3.1250000000000000e+02
        -3.1250000000000000e+02 -3.1250000000000000e+02
        -3.1250000000000000e+02 -3.1250000000000000e+02
        -3.1250000000000000e+02 -3.1250000000000000e+02
        -3.1250000000000000e+02 -3.1250000000000000e+02
        -3.1250000000000000e+02 -3.1250000000000000e+02
        -3.1250000000000000e+02 -3.1250000000000000e+02
        -3.1250000000000000e+02 -3.1250000000000000e+02
        -3.1250000000000000e+02 -3.1250000000000000e+02</alpha>
      <index>
        0 2 5 6 8 10 12 13 20 23 24 25 26 27 28 29 30 31 34 37 38 40 42
        44 46 48 50 52 54 55 56 59 61 62 64 66 69 75 90 96 97 99 102 103
        106 107 108 110 121 123 124 129 130 138 141 142 150 157 158 159
        161 163 168 171 172 179 192 200 201 202 205 207 211 220</index></_>
    <_>
      <sv_count>134</sv_count>
      <rho>3.1900189778596349e+01</rho>
      <alpha>
        3.1250000000000000e+02 3.1250000000000000e+02
        3.1250000000000000e+02 3.1250000000000000e+02
        3.1250000000000000e+02 3.1250000000000000e+02
        3.1250000000000000e+02 3.1250000000000000e+02
        3.1250000000000000e+02 3.1250000000000000e+02
        3.1250000000000000e+02 3.1250000000000000e+02
        3.1250000000000000e+02 1.2287913694210390e+02
        3.1250000000000000e+02 3.1250000000000000e+02
        3.1250000000000000e+02 3.1250000000000000e+02
        3.1250000000000000e+02 3.1250000000000000e+02
        3.1250000000000000e+02 3.1250000000000000e+02
        3.1250000000000000e+02 3.1250000000000000e+02
        3.1250000000000000e+02 3.1250000000000000e+02
        3.1250000000000000e+02 3.1250000000000000e+02
        3.1250000000000000e+02 3.1250000000000000e+02
        3.1250000000000000e+02 8.5241599363437544e+01
        3.1250000000000000e+02 3.1250000000000000e+02
        3.1250000000000000e+02 3.1250000000000000e+02
        3.1250000000000000e+02 3.1250000000000000e+02
        3.1250000000000000e+02 3.1250000000000000e+02
        8.1452906537503736e+01 3.1250000000000000e+02
        3.1250000000000000e+02 3.1250000000000000e+02
        3.1250000000000000e+02 3.1250000000000000e+02
        3.1250000000000000e+02 3.1250000000000000e+02
        3.1250000000000000e+02 3.1250000000000000e+02
        3.1250000000000000e+02 3.1250000000000000e+02
        3.1250000000000000e+02 3.1250000000000000e+02
        3.1250000000000000e+02 3.1250000000000000e+02
        3.1250000000000000e+02 3.1250000000000000e+02
        3.1250000000000000e+02 3.1250000000000000e+02
        3.1250000000000000e+02 3.1250000000000000e+02
        3.1250000000000000e+02 3.1250000000000000e+02
        3.1250000000000000e+02 3.1250000000000000e+02
        3.1250000000000000e+02 -3.1250000000000000e+02
        -3.1250000000000000e+02 -3.1250000000000000e+02
        -3.1250000000000000e+02 -2.3720651312310076e+02
        -3.1250000000000000e+02 -3.1250000000000000e+02
        -3.1250000000000000e+02 -3.1250000000000000e+02
        -3.1250000000000000e+02 -3.1250000000000000e+02
        -3.1250000000000000e+02 -3.1250000000000000e+02
        -3.1250000000000000e+02 -1.9878597665361136e+02
        -3.1250000000000000e+02 -3.1250000000000000e+02
        -3.1250000000000000e+02 -3.1250000000000000e+02
        -3.1250000000000000e+02 -3.1250000000000000e+02
        -3.1250000000000000e+02 -3.1250000000000000e+02
        -3.1250000000000000e+02 -3.1250000000000000e+02
        -3.1250000000000000e+02 -3.1250000000000000e+02
        -3.1250000000000000e+02 -3.1250000000000000e+02
        -3.1250000000000000e+02 -3.1250000000000000e+02
        -3.1250000000000000e+02 -3.1250000000000000e+02
        -8.4610382828885093e+01 -3.1250000000000000e+02
        -3.1250000000000000e+02 -3.1250000000000000e+02
        -3.1250000000000000e+02 -3.1250000000000000e+02
        -3.1250000000000000e+02 -3.1250000000000000e+02
        -3.1250000000000000e+02 -3.1250000000000000e+02
        -3.1250000000000000e+02 -3.1250000000000000e+02
        -3.1250000000000000e+02 -3.1250000000000000e+02
        -3.1250000000000000e+02 -3.1250000000000000e+02
        -8.1470770237447951e+01 -3.1250000000000000e+02
        -3.1250000000000000e+02 -3.1250000000000000e+02
        -3.1250000000000000e+02 -3.1250000000000000e+02
        -3.1250000000000000e+02 -3.1250000000000000e+02
        -3.1250000000000000e+02 -3.1250000000000000e+02
        -3.1250000000000000e+02 -3.1250000000000000e+02
        -3.1250000000000000e+02 -3.1250000000000000e+02
        -3.1250000000000000e+02 -3.1250000000000000e+02
        -3.1250000000000000e+02 -3.1250000000000000e+02</alpha>
      <index>
        0 1 2 3 4 5 7 8 9 10 11 12 14 15 16 17 18 19 20 21 22 23 24 25
        26 27 28 29 30 31 32 33 34 35 36 37 38 39 41 42 43 44 45 46 47
        48 49 50 51 53 55 56 57 58 59 60 61 63 64 65 66 67 68 70 71 72
        73 221 223 226 230 231 234 235 237 239 241 244 247 251 256 258
        264 265 272 274 275 276 277 278 279 284 287 289 290 291 292 294
        300 301 304 305 308 309 311 312 321 322 325 326 329 333 343 344
        345 355 356 360 362 365 366 367 370 371 372 375 376 379 381 383
        385 386 388 392</index></_>
    <_>
      <sv_count>238</sv_count>
      <rho>7.3320172049524629e+01</rho>
      <alpha>
        2.7624087129010331e+02 3.1250000000000000e+02
        3.1250000000000000e+02 3.1250000000000000e+02
        3.1250000000000000e+02 3.1250000000000000e+02
        3.1250000000000000e+02 3.1250000000000000e+02
        3.1250000000000000e+02 3.1250000000000000e+02
        3.1250000000000000e+02 3.1250000000000000e+02
        3.1250000000000000e+02 3.1250000000000000e+02
        3.1250000000000000e+02 3.1250000000000000e+02
        3.1250000000000000e+02 3.1250000000000000e+02
        3.1250000000000000e+02 3.1250000000000000e+02
        3.1250000000000000e+02 3.1250000000000000e+02
        3.1250000000000000e+02 3.1250000000000000e+02
        3.1250000000000000e+02 3.1250000000000000e+02
        3.1250000000000000e+02 3.1250000000000000e+02
        3.1250000000000000e+02 3.1250000000000000e+02
        3.1250000000000000e+02 3.1250000000000000e+02
        3.1250000000000000e+02 3.1250000000000000e+02
        3.1250000000000000e+02 3.1250000000000000e+02
        3.1250000000000000e+02 3.1250000000000000e+02
        3.1250000000000000e+02 3.1250000000000000e+02
        3.1250000000000000e+02 3.1250000000000000e+02
        3.1250000000000000e+02 3.1250000000000000e+02
        3.1250000000000000e+02 3.1250000000000000e+02
        3.1250000000000000e+02 3.1250000000000000e+02
        3.1250000000000000e+02 3.1250000000000000e+02
        3.1250000000000000e+02 3.1250000000000000e+02
        3.1250000000000000e+02 3.1250000000000000e+02
        3.1250000000000000e+02 3.1250000000000000e+02
        3.1250000000000000e+02 3.1250000000000000e+02
        3.1250000000000000e+02 3.1250000000000000e+02
        3.1250000000000000e+02 3.1250000000000000e+02
        3.1250000000000000e+02 3.1250000000000000e+02
        3.1250000000000000e+02 3.1250000000000000e+02
        3.1250000000000000e+02 3.1250000000000000e+02
        3.1250000000000000e+02 3.1250000000000000e+02
        3.1250000000000000e+02 3.1250000000000000e+02
        3.1250000000000000e+02 3.1250000000000000e+02
        3.1250000000000000e+02 3.1250000000000000e+02
        3.1250000000000000e+02 3.1250000000000000e+02
        3.1250000000000000e+02 3.1250000000000000e+02
        3.1250000000000000e+02 3.1250000000000000e+02
        3.1250000000000000e+02 3.1250000000000000e+02
        3.1250000000000000e+02 3.1250000000000000e+02
        3.1250000000000000e+02 3.1250000000000000e+02
        3.1250000000000000e+02 3.1250000000000000e+02
        3.1250000000000000e+02 3.1250000000000000e+02
        1.2845316837241941e+02 3.1250000000000000e+02
        3.1250000000000000e+02 3.1250000000000000e+02
        8.4753367735878385e+01 3.1250000000000000e+02
        3.1250000000000000e+02 3.1250000000000000e+02
        3.1250000000000000e+02 3.1250000000000000e+02
        3.1250000000000000e+02 3.1250000000000000e+02
        3.1250000000000000e+02 3.1250000000000000e+02
        3.1250000000000000e+02 3.1250000000000000e+02
        3.1250000000000000e+02 3.1250000000000000e+02
        3.1250000000000000e+02 3.1250000000000000e+02
        3.1250000000000000e+02 3.1250000000000000e+02
        3.1250000000000000e+02 3.1250000000000000e+02
        3.1250000000000000e+02 3.1250000000000000e+02
        -3.1250000000000000e+02 -3.1250000000000000e+02
        -3.1250000000000000e+02 -3.1250000000000000e+02
        -3.1250000000000000e+02 -3.1250000000000000e+02
        -3.1250000000000000e+02 -3.1250000000000000e+02
        -3.1250000000000000e+02 -3.1250000000000000e+02
        -3.1250000000000000e+02 -3.1250000000000000e+02
        -9.5255501654344442e+01 -3.1250000000000000e+02
        -3.1250000000000000e+02 -3.1250000000000000e+02
        -3.1250000000000000e+02 -5.2603814013751666e+01
        -5.3306349073233834e+00 -3.1250000000000000e+02
        -3.1250000000000000e+02 -3.1250000000000000e+02
        -3.1250000000000000e+02 -3.1250000000000000e+02
        -3.1250000000000000e+02 -3.1250000000000000e+02
        -3.1250000000000000e+02 -3.1250000000000000e+02
        -3.1250000000000000e+02 -3.1250000000000000e+02
        -3.1250000000000000e+02 -3.1250000000000000e+02
        -3.1250000000000000e+02 -3.1250000000000000e+02
        -3.1250000000000000e+02 -3.1250000000000000e+02
        -3.1250000000000000e+02 -3.1250000000000000e+02
        -3.1250000000000000e+02 -3.1250000000000000e+02
        -3.1250000000000000e+02 -2.6136725142799384e+02
        -3.1250000000000000e+02 -3.1250000000000000e+02
        -3.1250000000000000e+02 -3.1250000000000000e+02
        -3.1250000000000000e+02 -3.1250000000000000e+02
        -3.1250000000000000e+02 -3.1250000000000000e+02
        -3.1250000000000000e+02 -3.1250000000000000e+02
        -3.1250000000000000e+02 -3.1250000000000000e+02
        -3.1250000000000000e+02 -3.1250000000000000e+02
        -3.1250000000000000e+02 -3.1250000000000000e+02
        -3.1250000000000000e+02 -3.1250000000000000e+02
        -3.1250000000000000e+02 -3.1250000000000000e+02
        -3.1250000000000000e+02 -3.1250000000000000e+02
        -3.1250000000000000e+02 -3.1250000000000000e+02
        -3.1250000000000000e+02 -3.1250000000000000e+02
        -3.1250000000000000e+02 -3.1250000000000000e+02
        -3.1250000000000000e+02 -3.1250000000000000e+02
        -3.1250000000000000e+02 -3.1250000000000000e+02
        -3.1250000000000000e+02 -3.1250000000000000e+02
        -3.1250000000000000e+02 -3.1250000000000000e+02
        -3.1250000000000000e+02 -3.1250000000000000e+02
        -3.1250000000000000e+02 -3.1250000000000000e+02
        -3.1250000000000000e+02 -3.1250000000000000e+02
        -3.1250000000000000e+02 -3.1250000000000000e+02
        -3.1250000000000000e+02 -3.1250000000000000e+02
        -3.1250000000000000e+02 -3.1250000000000000e+02
        -3.1250000000000000e+02 -3.1250000000000000e+02
        -3.1250000000000000e+02 -3.1250000000000000e+02
        -7.4890205394987788e+01 -3.1250000000000000e+02
        -3.1250000000000000e+02 -3.1250000000000000e+02
        -3.1250000000000000e+02 -3.1250000000000000e+02
        -3.1250000000000000e+02 -3.1250000000000000e+02
        -3.1250000000000000e+02 -3.1250000000000000e+02
        -3.1250000000000000e+02 -3.1250000000000000e+02
        -3.1250000000000000e+02 -3.1250000000000000e+02
        -3.1250000000000000e+02 -3.1250000000000000e+02
        -3.1250000000000000e+02 -3.1250000000000000e+02
        -3.1250000000000000e+02 -3.1250000000000000e+02
        -3.1250000000000000e+02 -3.1250000000000000e+02
        -3.1250000000000000e+02 -3.1250000000000000e+02
        -3.1250000000000000e+02 -3.1250000000000000e+02</alpha>
      <index>
        74 76 77 78 79 80 81 82 83 84 85 86 87 88 89 91 92 93 94 95 96
        98 100 101 102 104 105 108 109 111 112 113 114 115 116 117 118
        119 120 122 123 125 126 127 128 131 132 133 134 135 136 137 139
        140 143 144 145 146 147 148 149 150 151 152 153 154 155 156 159
        160 161 162 164 165 166 167 169 170 173 174 175 176 177 178 179
        180 181 182 183 184 185 186 187 188 189 190 191 193 194 195 196
        197 198 199 203 204 206 208 209 210 212 213 214 215 216 217 218
        219 221 222 224 225 227 228 229 232 233 236 238 240 242 243 245
        246 248 249 250 252 253 254 255 257 259 260 261 262 263 265 266
        267 268 269 270 271 273 280 281 282 283 284 285 286 288 293 295
        296 297 298 299 300 302 303 306 307 310 313 314 315 316 317 318
        319 320 321 323 324 325 327 328 330 331 332 334 335 336 337 338
        339 340 341 342 343 345 346 347 348 349 350 351 352 353 354 356
        357 358 359 361 363 364 366 367 368 369 373 374 377 378 380 382
        383 384 385 386 387 389 390 391 393</index></_></decision_functions></my_svm>
</opencv_storage>
